FANN_FLO_2.1
num_layers=3
learning_rate=0.070000
connection_rate=1.000000
network_type=0
learning_momentum=0.000000
training_algorithm=2
train_error_function=1
train_stop_function=0
cascade_output_change_fraction=0.010000
quickprop_decay=-0.000100
quickprop_mu=1.750000
rprop_increase_factor=1.200000
rprop_decrease_factor=0.500000
rprop_delta_min=0.000000
rprop_delta_max=50.000000
rprop_delta_zero=0.100000
cascade_output_stagnation_epochs=12
cascade_candidate_change_fraction=0.010000
cascade_candidate_stagnation_epochs=12
cascade_max_out_epochs=150
cascade_min_out_epochs=50
cascade_max_cand_epochs=150
cascade_min_cand_epochs=50
cascade_num_candidate_groups=2
bit_fail_limit=3.49999994039535522461e-01
cascade_candidate_limit=1.00000000000000000000e+03
cascade_weight_multiplier=4.00000005960464477539e-01
cascade_activation_functions_count=10
cascade_activation_functions=3 5 7 8 10 11 14 15 16 17 
cascade_activation_steepnesses_count=4
cascade_activation_steepnesses=2.50000000000000000000e-01 5.00000000000000000000e-01 7.50000000000000000000e-01 1.00000000000000000000e+00 
layer_sizes=44 22 6 
scale_included=0
neurons (num_inputs, activation_function, activation_steepness)=(0, 0, 0.00000000000000000000e+00) (0, 0, 0.00000000000000000000e+00) (0, 0, 0.00000000000000000000e+00) (0, 0, 0.00000000000000000000e+00) (0, 0, 0.00000000000000000000e+00) (0, 0, 0.00000000000000000000e+00) (0, 0, 0.00000000000000000000e+00) (0, 0, 0.00000000000000000000e+00) (0, 0, 0.00000000000000000000e+00) (0, 0, 0.00000000000000000000e+00) (0, 0, 0.00000000000000000000e+00) (0, 0, 0.00000000000000000000e+00) (0, 0, 0.00000000000000000000e+00) (0, 0, 0.00000000000000000000e+00) (0, 0, 0.00000000000000000000e+00) (0, 0, 0.00000000000000000000e+00) (0, 0, 0.00000000000000000000e+00) (0, 0, 0.00000000000000000000e+00) (0, 0, 0.00000000000000000000e+00) (0, 0, 0.00000000000000000000e+00) (0, 0, 0.00000000000000000000e+00) (0, 0, 0.00000000000000000000e+00) (0, 0, 0.00000000000000000000e+00) (0, 0, 0.00000000000000000000e+00) (0, 0, 0.00000000000000000000e+00) (0, 0, 0.00000000000000000000e+00) (0, 0, 0.00000000000000000000e+00) (0, 0, 0.00000000000000000000e+00) (0, 0, 0.00000000000000000000e+00) (0, 0, 0.00000000000000000000e+00) (0, 0, 0.00000000000000000000e+00) (0, 0, 0.00000000000000000000e+00) (0, 0, 0.00000000000000000000e+00) (0, 0, 0.00000000000000000000e+00) (0, 0, 0.00000000000000000000e+00) (0, 0, 0.00000000000000000000e+00) (0, 0, 0.00000000000000000000e+00) (0, 0, 0.00000000000000000000e+00) (0, 0, 0.00000000000000000000e+00) (0, 0, 0.00000000000000000000e+00) (0, 0, 0.00000000000000000000e+00) (0, 0, 0.00000000000000000000e+00) (0, 0, 0.00000000000000000000e+00) (0, 0, 0.00000000000000000000e+00) (44, 6, 1.00000001490116119385e-01) (44, 6, 1.00000001490116119385e-01) (44, 6, 1.00000001490116119385e-01) (44, 6, 1.00000001490116119385e-01) (44, 6, 1.00000001490116119385e-01) (44, 6, 1.00000001490116119385e-01) (44, 6, 1.00000001490116119385e-01) (44, 6, 1.00000001490116119385e-01) (44, 6, 1.00000001490116119385e-01) (44, 6, 1.00000001490116119385e-01) (44, 6, 1.00000001490116119385e-01) (44, 6, 1.00000001490116119385e-01) (44, 6, 1.00000001490116119385e-01) (44, 6, 1.00000001490116119385e-01) (44, 6, 1.00000001490116119385e-01) (44, 6, 1.00000001490116119385e-01) (44, 6, 1.00000001490116119385e-01) (44, 6, 1.00000001490116119385e-01) (44, 6, 1.00000001490116119385e-01) (44, 6, 1.00000001490116119385e-01) (44, 6, 1.00000001490116119385e-01) (0, 6, 1.00000001490116119385e-01) (22, 6, 1.00000001490116119385e-01) (22, 6, 1.00000001490116119385e-01) (22, 6, 1.00000001490116119385e-01) (22, 6, 1.00000001490116119385e-01) (22, 6, 1.00000001490116119385e-01) (0, 6, 1.00000001490116119385e-01) 
connections (connected_to_neuron, weight)=(0, -1.25775337219238281250e+00) (1, 1.81315994262695312500e+01) (2, 1.50000000000000000000e+03) (3, 1.19855022430419921875e+01) (4, 8.29704952239990234375e+00) (5, 1.50000000000000000000e+03) (6, 1.50000000000000000000e+03) (7, 8.06250190734863281250e+00) (8, 8.27354431152343750000e+00) (9, -3.27107965946197509766e-01) (10, -1.96945738792419433594e+00) (11, 1.50000000000000000000e+03) (12, 1.50000000000000000000e+03) (13, 1.50000000000000000000e+03) (14, -1.48303762078285217285e-01) (15, 8.68223071098327636719e-01) (16, 1.14114212989807128906e+00) (17, -2.17672014236450195312e+00) (18, 2.59536671638488769531e+00) (19, 1.14602081477642059326e-01) (20, -6.59198427200317382812e+00) (21, -5.70885562896728515625e+00) (22, 5.28215467929840087891e-01) (23, -6.66326665878295898438e+00) (24, 2.67706871032714843750e+00) (25, -1.44789953613281250000e+03) (26, -1.50000000000000000000e+03) (27, -1.49406054687500000000e+03) (28, -1.35361828613281250000e+03) (29, -1.50000000000000000000e+03) (30, 1.05903816223144531250e+00) (31, 1.07266545295715332031e+00) (32, 9.09371674060821533203e-01) (33, 7.42495596408843994141e-01) (34, 1.08713340759277343750e+00) (35, 8.27750027179718017578e-01) (36, 2.64318495988845825195e-01) (37, 8.15778017044067382812e-01) (38, 3.97004067897796630859e-01) (39, 7.80492842197418212891e-01) (40, -1.49646618652343750000e+03) (41, 8.81843268871307373047e-02) (42, 2.79031219482421875000e+02) (43, -1.01179373264312744141e+00) (0, -1.01734435558319091797e+00) (1, -1.76918923854827880859e+00) (2, 1.50000000000000000000e+03) (3, -6.45427274703979492188e+00) (4, 6.57678222656250000000e+01) (5, 1.50000000000000000000e+03) (6, 1.50000000000000000000e+03) (7, -7.95888519287109375000e+00) (8, 2.40339889526367187500e+01) (9, -3.51852416992187500000e-01) (10, -3.73972147703170776367e-01) (11, 1.50000000000000000000e+03) (12, 1.50000000000000000000e+03) (13, 1.50000000000000000000e+03) (14, 5.12068748474121093750e-01) (15, 4.46029491722583770752e-02) (16, 2.44100093841552734375e+00) (17, 3.96373867988586425781e+00) (18, -6.29154872894287109375e+00) (19, -6.09211730957031250000e+00) (20, 6.68934345245361328125e+00) (21, 6.05055522918701171875e+00) (22, 8.84358048439025878906e-01) (23, -5.89679062366485595703e-01) (24, -2.33371901512145996094e+00) (25, -4.04317617416381835938e+00) (26, -1.27088937759399414062e+01) (27, -1.49732172489166259766e+00) (28, -3.74733018875122070312e+00) (29, 1.40426807403564453125e+01) (30, 5.88955998420715332031e-01) (31, 1.08884155750274658203e+00) (32, 9.25061047077178955078e-01) (33, 1.05375254154205322266e+00) (34, 8.88188958168029785156e-01) (35, 1.67552351951599121094e-01) (36, 2.13148996233940124512e-01) (37, 1.00145971775054931641e+00) (38, 8.96719276905059814453e-01) (39, 5.05114436149597167969e-01) (40, 6.77544832229614257812e-01) (41, -3.38749229907989501953e-01) (42, 4.02666521072387695312e+00) (43, 2.33062192797660827637e-01) (0, 1.20428771972656250000e+01) (1, -2.51995754241943359375e+01) (2, 1.50000000000000000000e+03) (3, 1.01286725997924804688e+01) (4, 1.50000000000000000000e+03) (5, 1.50000000000000000000e+03) (6, 1.50000000000000000000e+03) (7, 4.71651554107666015625e+00) (8, 1.50000000000000000000e+03) (9, -1.35006427764892578125e+01) (10, 1.50000000000000000000e+03) (11, 1.50000000000000000000e+03) (12, 1.50000000000000000000e+03) (13, 1.50000000000000000000e+03) (14, 3.20527553558349609375e-01) (15, -3.44753801822662353516e-01) (16, 1.75367140769958496094e+00) (17, 9.11814758300781250000e+02) (18, -6.34031616210937500000e+02) (19, 2.17791438102722167969e+00) (20, 2.73080348968505859375e+01) (21, 3.96315460205078125000e+01) (22, 2.96955680847167968750e+01) (23, -5.62902116775512695312e+00) (24, 7.26499557495117187500e+01) (25, 1.50000000000000000000e+03) (26, 1.34041461944580078125e+01) (27, -2.12433357238769531250e+01) (28, 1.54929437637329101562e+01) (29, 3.22269020080566406250e+01) (30, 9.00272905826568603516e-01) (31, 7.51731514930725097656e-01) (32, 1.05721616744995117188e+00) (33, 3.05753380060195922852e-01) (34, 1.05627977848052978516e+00) (35, 9.62266743183135986328e-01) (36, 4.38999176025390625000e-01) (37, 3.75038206577301025391e-01) (38, 2.94169723987579345703e-01) (39, 3.28369528055191040039e-01) (40, -1.62310829162597656250e+01) (41, 6.36485755443572998047e-01) (42, -2.10059432983398437500e+01) (43, 1.72234058380126953125e-01) (0, 1.38512265682220458984e+00) (1, 1.39680111408233642578e+00) (2, 1.50000000000000000000e+03) (3, 3.37093901634216308594e+00) (4, 8.94915163516998291016e-01) (5, 1.50000000000000000000e+03) (6, 1.50000000000000000000e+03) (7, 1.52187132835388183594e+00) (8, 1.50000000000000000000e+03) (9, 1.70756769180297851562e+00) (10, -2.73026895523071289062e+00) (11, 1.50000000000000000000e+03) (12, 1.50000000000000000000e+03) (13, 1.50000000000000000000e+03) (14, 4.58791911602020263672e-01) (15, 1.58742621541023254395e-01) (16, 1.87827599048614501953e+00) (17, 4.53557580709457397461e-01) (18, 1.50000000000000000000e+03) (19, -2.23406386375427246094e+00) (20, 1.33789081573486328125e+01) (21, 2.47261142730712890625e+00) (22, -1.98718056082725524902e-01) (23, 5.81271648406982421875e+00) (24, -5.74620771408081054688e+00) (25, 9.10916423797607421875e+00) (26, 3.71904283761978149414e-01) (27, -5.78541135787963867188e+00) (28, 1.18433942794799804688e+01) (29, 1.19209508895874023438e+01) (30, 6.96991860866546630859e-01) (31, 9.70391869544982910156e-01) (32, 4.03727859258651733398e-01) (33, 4.15533959865570068359e-01) (34, 4.05367136001586914062e-01) (35, 7.33758866786956787109e-01) (36, 6.94771111011505126953e-01) (37, 1.03107297420501708984e+00) (38, 1.98131233453750610352e-01) (39, 3.64059329032897949219e-01) (40, -6.31218576431274414062e+00) (41, -8.81460070610046386719e-01) (42, 3.33061009645462036133e-01) (43, 2.83709436655044555664e-01) (0, 3.60113906860351562500e+00) (1, -1.32360064983367919922e+00) (2, 1.50000000000000000000e+03) (3, -3.30102658271789550781e+00) (4, 2.08428726196289062500e+01) (5, 1.50000000000000000000e+03) (6, 1.50000000000000000000e+03) (7, 4.18196449279785156250e+01) (8, 1.50000000000000000000e+03) (9, 8.80206394195556640625e+00) (10, 2.14275264739990234375e+01) (11, 1.50000000000000000000e+03) (12, 1.50000000000000000000e+03) (13, 1.50000000000000000000e+03) (14, -1.27212691307067871094e+00) (15, -6.08224198222160339355e-02) (16, -5.78483343124389648438e-01) (17, -6.98051810264587402344e-01) (18, 1.50000000000000000000e+03) (19, -7.90074348449707031250e-01) (20, -7.39017248153686523438e-01) (21, 4.26340818405151367188e+00) (22, 1.00204620361328125000e+01) (23, 1.73778569698333740234e+00) (24, -1.67115822434425354004e-01) (25, -2.70477867126464843750e+01) (26, -7.72775232791900634766e-01) (27, -1.04199099540710449219e+00) (28, -3.57517600059509277344e+00) (29, 1.50000000000000000000e+03) (30, 1.03814017772674560547e+00) (31, 6.73751056194305419922e-01) (32, 2.98281937837600708008e-01) (33, 3.41079771518707275391e-01) (34, 4.27859574556350708008e-01) (35, 4.33496803045272827148e-01) (36, 6.79614961147308349609e-01) (37, 1.05220723152160644531e+00) (38, 6.27717256546020507812e-01) (39, 1.05123817920684814453e+00) (40, 2.85071487426757812500e+01) (41, 3.77617552876472473145e-02) (42, -3.94776082038879394531e+00) (43, 6.33803129196166992188e-01) (0, 1.46398460865020751953e+00) (1, -4.58908891677856445312e+00) (2, 1.50000000000000000000e+03) (3, 1.45264729857444763184e-01) (4, 2.31004524230957031250e+01) (5, 1.50000000000000000000e+03) (6, 1.50000000000000000000e+03) (7, -3.69595098495483398438e+00) (8, 6.45753431320190429688e+00) (9, -3.23099303245544433594e+00) (10, 8.54371166229248046875e+00) (11, 1.50000000000000000000e+03) (12, 1.50000000000000000000e+03) (13, 1.50000000000000000000e+03) (14, -1.44708216190338134766e+00) (15, 1.52841699123382568359e+00) (16, 2.94488358497619628906e+00) (17, 6.02924871444702148438e+00) (18, 1.50000000000000000000e+03) (19, -2.00406014919281005859e-01) (20, 6.41227102279663085938e+00) (21, -1.43539118766784667969e+00) (22, 6.94890081882476806641e-01) (23, 2.94268345832824707031e+00) (24, -2.04916119575500488281e-01) (25, 8.74552822113037109375e+00) (26, 5.85201549530029296875e+00) (27, -1.21206970214843750000e+01) (28, 4.21154880523681640625e+00) (29, -9.26913261413574218750e-01) (30, 7.48388826847076416016e-01) (31, 9.98855054378509521484e-01) (32, 8.13377320766448974609e-01) (33, 6.64923906326293945312e-01) (34, 4.05533552169799804688e-01) (35, 2.81142979860305786133e-01) (36, 6.56061232089996337891e-01) (37, 2.45835900306701660156e-01) (38, 6.88614249229431152344e-01) (39, 9.77757155895233154297e-01) (40, -5.26116943359375000000e+00) (41, 9.85200405120849609375e-01) (42, -2.41017227172851562500e+01) (43, -2.51268148422241210938e-01) (0, 1.15083551406860351562e+01) (1, 1.62054073810577392578e+00) (2, 1.50000000000000000000e+03) (3, -1.20197019577026367188e+01) (4, 1.93280506134033203125e+01) (5, 1.50000000000000000000e+03) (6, 1.50000000000000000000e+03) (7, -1.92985653877258300781e+00) (8, 1.00703411102294921875e+01) (9, -2.62177252769470214844e+00) (10, -3.40438103675842285156e+00) (11, 1.50000000000000000000e+03) (12, 1.50000000000000000000e+03) (13, 1.50000000000000000000e+03) (14, 3.53943777084350585938e+00) (15, 2.00668632984161376953e-01) (16, 1.42076277732849121094e+00) (17, 8.11769580841064453125e+00) (18, 1.50000000000000000000e+03) (19, -4.52654093503952026367e-01) (20, 1.62560093402862548828e+00) (21, 1.58039903640747070312e+00) (22, 6.90130281448364257812e+00) (23, 1.01724088191986083984e+00) (24, 1.27837944030761718750e+00) (25, -7.49328079223632812500e+01) (26, -1.48045434951782226562e+01) (27, -2.27956414222717285156e+00) (28, -1.56223726272583007812e+01) (29, 2.45944004058837890625e+01) (30, 6.72621369361877441406e-01) (31, 7.96504437923431396484e-01) (32, 6.24119102954864501953e-01) (33, 4.81816500425338745117e-01) (34, 7.81887650489807128906e-01) (35, 4.79682475328445434570e-01) (36, 6.08910262584686279297e-01) (37, 6.05843305587768554688e-01) (38, 1.95274740457534790039e-01) (39, 3.77640515565872192383e-01) (40, -7.01541442871093750000e+01) (41, 3.43419969081878662109e-01) (42, 1.64378601074218750000e+02) (43, 9.93422627449035644531e-01) (0, 1.52488195896148681641e+00) (1, 1.50000000000000000000e+03) (2, 1.50000000000000000000e+03) (3, 1.45702199935913085938e+01) (4, -3.49876892089843750000e+02) (5, 1.50000000000000000000e+03) (6, 1.50000000000000000000e+03) (7, 9.40902137756347656250e+00) (8, -5.63307952880859375000e+01) (9, -1.46293363571166992188e+01) (10, 2.69148368835449218750e+01) (11, 1.50000000000000000000e+03) (12, 1.50000000000000000000e+03) (13, 1.50000000000000000000e+03) (14, 8.06055188179016113281e-01) (15, -1.84677338600158691406e+00) (16, -1.66107578277587890625e+01) (17, 4.42157888412475585938e+00) (18, 1.50000000000000000000e+03) (19, -3.63401961326599121094e+00) (20, 1.81461119651794433594e+00) (21, 5.10579207912087440491e-04) (22, 6.47319641113281250000e+01) (23, -1.63032817840576171875e+00) (24, 3.57199835777282714844e+00) (25, 5.89491882324218750000e+01) (26, 1.60575330257415771484e+00) (27, 1.49998083496093750000e+03) (28, 3.98133468627929687500e+01) (29, 1.85048294067382812500e+02) (30, 9.56894993782043457031e-01) (31, 1.01410305500030517578e+00) (32, 1.04340493679046630859e+00) (33, 2.58331894874572753906e-01) (34, 1.05798542499542236328e+00) (35, 7.73037314414978027344e-01) (36, 6.69482409954071044922e-01) (37, 2.60124891996383666992e-01) (38, 9.11684513092041015625e-01) (39, 5.37010312080383300781e-01) (40, 4.79151573181152343750e+01) (41, 9.60700273513793945312e-01) (42, 1.35169982910156250000e+01) (43, 1.42486763000488281250e+00) (0, -2.59662985801696777344e+00) (1, 5.45840120315551757812e+00) (2, 1.50000000000000000000e+03) (3, -2.15960308909416198730e-01) (4, -6.18636512756347656250e+01) (5, 1.50000000000000000000e+03) (6, 1.50000000000000000000e+03) (7, -5.73455476760864257812e+00) (8, -1.16665019989013671875e+01) (9, -7.47452116012573242188e+00) (10, 3.53441309928894042969e+00) (11, 1.50000000000000000000e+03) (12, 1.50000000000000000000e+03) (13, 1.50000000000000000000e+03) (14, 5.34512579441070556641e-01) (15, -3.06309366226196289062e+00) (16, -3.30064725875854492188e+00) (17, -1.05156803131103515625e+01) (18, -1.88778553009033203125e+01) (19, 7.18400418758392333984e-01) (20, 9.16275501251220703125e+00) (21, 2.66536502838134765625e+01) (22, 2.86516437530517578125e+01) (23, -4.93205165863037109375e+00) (24, -1.69684906005859375000e+01) (25, -2.10513710975646972656e+00) (26, -3.37143707275390625000e+01) (27, -4.67631225585937500000e+01) (28, 1.49670658111572265625e+01) (29, -2.14982337951660156250e+01) (30, 6.89046204090118408203e-01) (31, 2.38014385104179382324e-01) (32, 4.69618886709213256836e-01) (33, 1.05889117717742919922e+00) (34, 3.01354020833969116211e-01) (35, 6.56649947166442871094e-01) (36, 7.48465955257415771484e-01) (37, 1.06114280223846435547e+00) (38, 6.72517955303192138672e-01) (39, 3.90070527791976928711e-01) (40, 1.43365983963012695312e+01) (41, 6.43691778182983398438e-01) (42, 5.24698543548583984375e+00) (43, 6.87375664710998535156e-01) (0, 1.18773603439331054688e+00) (1, -2.48018980026245117188e+00) (2, 1.50000000000000000000e+03) (3, 1.60963761806488037109e+00) (4, -4.52269411087036132812e+00) (5, 1.50000000000000000000e+03) (6, 1.50000000000000000000e+03) (7, 7.17371404170989990234e-01) (8, -7.79681873321533203125e+00) (9, -1.51921319961547851562e+00) (10, -5.39484500885009765625e-01) (11, 1.50000000000000000000e+03) (12, 1.50000000000000000000e+03) (13, 1.50000000000000000000e+03) (14, 1.41645431518554687500e+00) (15, -2.34240800142288208008e-01) (16, 7.19420671463012695312e-01) (17, -1.42461985349655151367e-01) (18, -5.68294830322265625000e+01) (19, 8.56361627578735351562e-01) (20, 1.32491254806518554688e+00) (21, 2.03269696235656738281e+00) (22, 3.55858612060546875000e+00) (23, 1.73567339777946472168e-01) (24, 5.73587703704833984375e+00) (25, -1.07807385921478271484e+00) (26, -6.06035375595092773438e+00) (27, 1.07654535770416259766e+00) (28, -2.82825779914855957031e+00) (29, 2.23569068908691406250e+01) (30, 7.46896445751190185547e-01) (31, 7.77466356754302978516e-01) (32, 4.97249662876129150391e-01) (33, 8.41258525848388671875e-01) (34, 4.85494971275329589844e-01) (35, 4.54776406288146972656e-01) (36, 1.55774623155593872070e-01) (37, 1.05687832832336425781e+00) (38, 2.80988156795501708984e-01) (39, 5.53825914859771728516e-01) (40, -2.34538307189941406250e+01) (41, 8.22530746459960937500e-01) (42, 6.79178476333618164062e+00) (43, 9.64365541934967041016e-01) (0, -1.13288187980651855469e+00) (1, 5.17102360725402832031e-01) (2, 1.50000000000000000000e+03) (3, 1.95915549993515014648e-01) (4, 4.91043090820312500000e+01) (5, 1.50000000000000000000e+03) (6, 1.50000000000000000000e+03) (7, -1.00086057186126708984e+00) (8, 1.90283620357513427734e+00) (9, 6.03390932083129882812e-01) (10, -4.30800294876098632812e+00) (11, 1.50000000000000000000e+03) (12, 1.50000000000000000000e+03) (13, 1.50000000000000000000e+03) (14, -2.75360107421875000000e-01) (15, -1.61561042070388793945e-01) (16, -7.77198910713195800781e-01) (17, -5.73687367141246795654e-02) (18, -7.54280853271484375000e+01) (19, -4.78413194417953491211e-01) (20, 4.84372228384017944336e-01) (21, 1.59899044036865234375e+00) (22, 1.54814183712005615234e+00) (23, 1.63768804073333740234e+00) (24, -4.78031063079833984375e+00) (25, 9.46121501922607421875e+00) (26, 2.53725957870483398438e+00) (27, 1.13404598236083984375e+01) (28, 1.85982093811035156250e+01) (29, -2.13112945556640625000e+01) (30, 3.75981390476226806641e-01) (31, 8.52743983268737792969e-01) (32, 6.05520009994506835938e-01) (33, 7.48160004615783691406e-01) (34, 9.02176082134246826172e-01) (35, 1.92040130496025085449e-01) (36, 9.90306615829467773438e-01) (37, 9.38055336475372314453e-01) (38, 7.07580029964447021484e-01) (39, 2.99653649330139160156e-01) (40, 2.47894835472106933594e+00) (41, 6.18442773818969726562e-01) (42, 7.72769868373870849609e-01) (43, -8.99889349937438964844e-01) (0, 2.71210050582885742188e+00) (1, -6.61983132362365722656e-01) (2, 1.50000000000000000000e+03) (3, -1.97086982727050781250e+01) (4, 1.50000000000000000000e+03) (5, 1.50000000000000000000e+03) (6, 1.50000000000000000000e+03) (7, -3.38285980224609375000e+01) (8, -1.06883535385131835938e+01) (9, 9.11372721195220947266e-01) (10, 4.51142120361328125000e+00) (11, 1.50000000000000000000e+03) (12, 1.50000000000000000000e+03) (13, 1.50000000000000000000e+03) (14, -7.25448250770568847656e-01) (15, -3.25367301702499389648e-01) (16, 7.34376966953277587891e-01) (17, 2.54721927642822265625e+00) (18, 8.62695980072021484375e+00) (19, -3.00664329528808593750e+00) (20, -2.96860003471374511719e+00) (21, 6.38668584823608398438e+00) (22, 1.01343524169921875000e+03) (23, 2.48587417602539062500e+01) (24, -1.79248485565185546875e+01) (25, 1.48189239501953125000e+01) (26, -1.83050781250000000000e+02) (27, -1.49566375732421875000e+02) (28, -1.81578979492187500000e+01) (29, -3.82913093566894531250e+01) (30, 3.95546168088912963867e-01) (31, 4.38680708408355712891e-01) (32, 3.76477152109146118164e-01) (33, 9.22314643859863281250e-01) (34, 3.13219159841537475586e-01) (35, 5.25228142738342285156e-01) (36, 6.94048583507537841797e-01) (37, 6.79097235202789306641e-01) (38, 1.06488442420959472656e+00) (39, 1.00154161453247070312e+00) (40, -7.29102993011474609375e+00) (41, -1.59958690404891967773e-01) (42, 1.50000000000000000000e+03) (43, -2.06703591346740722656e+00) (0, -3.28161964416503906250e+01) (1, 6.03612136840820312500e+00) (2, 1.50000000000000000000e+03) (3, 3.39148292541503906250e+01) (4, 9.80598831176757812500e+01) (5, 1.50000000000000000000e+03) (6, 1.50000000000000000000e+03) (7, 1.05879151821136474609e+00) (8, -3.75821304321289062500e+00) (9, 1.06560313701629638672e+00) (10, 4.72146940231323242188e+00) (11, 1.50000000000000000000e+03) (12, 1.50000000000000000000e+03) (13, 1.50000000000000000000e+03) (14, -6.70548295974731445312e+00) (15, 8.81771445274353027344e-01) (16, -1.20883584022521972656e+00) (17, -6.58950519561767578125e+00) (18, 1.50000000000000000000e+03) (19, 1.13086986541748046875e+00) (20, -2.07300233840942382812e+00) (21, -7.41103506088256835938e+00) (22, -1.45254650115966796875e+01) (23, -1.52842175960540771484e+00) (24, -1.02747058868408203125e+00) (25, 6.72317428588867187500e+01) (26, 1.91749801635742187500e+01) (27, -1.50000000000000000000e+03) (28, -1.12524101257324218750e+02) (29, 7.95227127075195312500e+01) (30, 3.67282807826995849609e-01) (31, 9.10416841506958007812e-01) (32, 5.02729415893554687500e-01) (33, 8.33170115947723388672e-01) (34, 4.46674168109893798828e-01) (35, 3.76997560262680053711e-01) (36, 5.94558298587799072266e-01) (37, 2.02728852629661560059e-01) (38, 5.53687989711761474609e-01) (39, 4.04212802648544311523e-01) (40, -7.80638980865478515625e+00) (41, 5.65440535545349121094e-01) (42, -2.24209403991699218750e+01) (43, -1.29229605197906494141e-01) (0, 5.79049170017242431641e-01) (1, 8.58500385284423828125e+00) (2, 1.50000000000000000000e+03) (3, 2.54388451576232910156e+00) (4, -2.40342845916748046875e+01) (5, 1.50000000000000000000e+03) (6, 1.50000000000000000000e+03) (7, 1.40731697082519531250e+01) (8, 4.94352054595947265625e+00) (9, -3.61292511224746704102e-01) (10, -1.39982569217681884766e+00) (11, 1.50000000000000000000e+03) (12, 1.50000000000000000000e+03) (13, 1.50000000000000000000e+03) (14, 8.01305592060089111328e-01) (15, 2.11757874488830566406e+00) (16, 3.89722585678100585938e-01) (17, -1.17264568805694580078e+00) (18, 6.02417898178100585938e+00) (19, -9.59378778934478759766e-01) (20, 1.03668117523193359375e+00) (21, 1.37825608253479003906e-01) (22, 2.26707124710083007812e+00) (23, -1.06278572082519531250e+01) (24, 7.59838533401489257812e+00) (25, -4.82057332992553710938e+00) (26, -1.15262675285339355469e+00) (27, -4.33023357391357421875e+00) (28, 3.36916923522949218750e+01) (29, -1.05943012237548828125e+01) (30, 3.88343423604965209961e-01) (31, 8.02012920379638671875e-01) (32, 5.13982117176055908203e-01) (33, 7.87315547466278076172e-01) (34, 8.47893297672271728516e-01) (35, 5.81881165504455566406e-01) (36, 9.63519394397735595703e-01) (37, 6.47708773612976074219e-01) (38, 6.51662051677703857422e-01) (39, 1.08070445060729980469e+00) (40, 3.12527065277099609375e+01) (41, 4.37596112489700317383e-01) (42, 1.15510452270507812500e+02) (43, 5.18468558788299560547e-01) (0, -4.28469562530517578125e+00) (1, 1.63982915878295898438e+00) (2, 1.50000000000000000000e+03) (3, -3.74661350250244140625e+00) (4, -3.87781867980957031250e+01) (5, 1.50000000000000000000e+03) (6, 1.50000000000000000000e+03) (7, 3.41463470458984375000e+00) (8, -8.07500743865966796875e+00) (9, 3.31284880638122558594e+00) (10, -5.06228876113891601562e+00) (11, 1.50000000000000000000e+03) (12, 1.50000000000000000000e+03) (13, 1.50000000000000000000e+03) (14, -8.29289317131042480469e-01) (15, -8.51143538951873779297e-01) (16, 1.15349486470222473145e-01) (17, -8.83983135223388671875e+00) (18, 1.82190109252929687500e+02) (19, -1.24003100395202636719e+00) (20, 7.61515665054321289062e+00) (21, 9.92862987518310546875e+00) (22, 1.03968887329101562500e+01) (23, 1.15523493289947509766e+00) (24, 1.02864936828613281250e+02) (25, -1.79830398559570312500e+01) (26, -1.83037261962890625000e+01) (27, -6.55419387817382812500e+01) (28, -3.62347183227539062500e+01) (29, -1.40778564453125000000e+03) (30, 6.21791481971740722656e-01) (31, 7.00661838054656982422e-01) (32, 9.81844782829284667969e-01) (33, 1.68958514928817749023e-01) (34, 3.03577423095703125000e-01) (35, 5.83287298679351806641e-01) (36, 5.31042575836181640625e-01) (37, 5.48066496849060058594e-01) (38, 9.73196148872375488281e-01) (39, 1.05049514770507812500e+00) (40, 4.63593631982803344727e-01) (41, -2.95383065938949584961e-01) (42, 7.12807798385620117188e+00) (43, -5.26709198951721191406e-01) (0, -1.94469559192657470703e+00) (1, -6.37576341629028320312e+00) (2, 1.50000000000000000000e+03) (3, 8.33144950866699218750e+00) (4, 1.64836837768554687500e+02) (5, 1.50000000000000000000e+03) (6, 1.50000000000000000000e+03) (7, 3.58995513916015625000e+01) (8, 5.88504314422607421875e+00) (9, 9.71419155597686767578e-01) (10, -6.15544462203979492188e+00) (11, 1.50000000000000000000e+03) (12, 1.50000000000000000000e+03) (13, 1.50000000000000000000e+03) (14, 5.06971716880798339844e-01) (15, -3.97423505783081054688e-01) (16, -3.20624399185180664062e+00) (17, 1.04296326637268066406e+00) (18, -3.93118896484375000000e+01) (19, 3.75595712661743164062e+00) (20, -8.86753976345062255859e-01) (21, -1.39251127243041992188e+01) (22, -1.58409748077392578125e+01) (23, -8.22879076004028320312e-01) (24, -1.20331799983978271484e+00) (25, 1.86273941040039062500e+02) (26, -3.75096321105957031250e+01) (27, 2.15601577758789062500e+02) (28, -5.19888458251953125000e+01) (29, -1.46505029296875000000e+03) (30, 6.95082664489746093750e-01) (31, 7.93737471103668212891e-01) (32, 1.91660910844802856445e-01) (33, 4.32175159454345703125e-01) (34, 3.98173362016677856445e-01) (35, 2.69023925065994262695e-01) (36, 4.78414356708526611328e-01) (37, 1.09528875350952148438e+00) (38, 3.26725512742996215820e-01) (39, 5.77571809291839599609e-01) (40, 8.87127456665039062500e+01) (41, -3.22604835033416748047e-01) (42, -1.50000000000000000000e+03) (43, 3.85895729064941406250e-01) (0, -6.65828585624694824219e-01) (1, -1.66678750514984130859e+00) (2, 1.50000000000000000000e+03) (3, -8.42702925205230712891e-01) (4, -8.27567520141601562500e+01) (5, 1.50000000000000000000e+03) (6, 1.50000000000000000000e+03) (7, -4.19997882843017578125e+00) (8, -1.33374929428100585938e+01) (9, 4.87604379653930664062e+00) (10, -2.71763920783996582031e+00) (11, 1.50000000000000000000e+03) (12, 1.50000000000000000000e+03) (13, 1.50000000000000000000e+03) (14, 1.86529994010925292969e+00) (15, 6.92703545093536376953e-01) (16, 6.04352855682373046875e+00) (17, -1.25781860351562500000e+01) (18, 1.50000000000000000000e+03) (19, 2.90252834558486938477e-01) (20, 2.78334474563598632812e+00) (21, 6.50200033187866210938e+00) (22, 7.75844573974609375000e+01) (23, 2.10307359695434570312e-01) (24, 2.33519439697265625000e+01) (25, 1.49970922851562500000e+03) (26, 1.27392425537109375000e+01) (27, -1.44489669799804687500e+01) (28, -1.29243588447570800781e+00) (29, 1.88850822448730468750e+01) (30, 5.59995532035827636719e-01) (31, 1.04108381271362304688e+00) (32, 4.77570682764053344727e-01) (33, 1.05328953266143798828e+00) (34, 9.24459397792816162109e-01) (35, 5.13844370841979980469e-01) (36, 9.01408374309539794922e-01) (37, 7.80295550823211669922e-01) (38, 7.62095272541046142578e-01) (39, 2.58329868316650390625e-01) (40, -9.89243388175964355469e-01) (41, 5.76742112636566162109e-01) (42, 5.05305595397949218750e+01) (43, 1.95419058203697204590e-01) (0, 1.92296564579010009766e+00) (1, 2.48714648187160491943e-02) (2, 1.50000000000000000000e+03) (3, 3.43503260612487792969e+00) (4, -1.50000000000000000000e+03) (5, 1.50000000000000000000e+03) (6, 1.50000000000000000000e+03) (7, 1.69701039791107177734e+00) (8, 9.59391975402832031250e+00) (9, -4.23031806945800781250e+00) (10, 2.63907890319824218750e+01) (11, 1.50000000000000000000e+03) (12, 1.50000000000000000000e+03) (13, 1.50000000000000000000e+03) (14, -1.82040870189666748047e+00) (15, 3.33841586112976074219e+00) (16, 6.39782953262329101562e+00) (17, 2.97786569595336914062e+00) (18, 1.50000000000000000000e+03) (19, -6.88225805759429931641e-01) (20, 1.12854394912719726562e+01) (21, 1.22008013725280761719e+00) (22, 3.15724778175354003906e+00) (23, 4.03636902570724487305e-01) (24, -7.27213025093078613281e-01) (25, -1.13400292968750000000e+03) (26, -1.04459943771362304688e+01) (27, -1.50000000000000000000e+03) (28, 4.01298332214355468750e+00) (29, 1.53489093780517578125e+01) (30, 5.54373741149902343750e-01) (31, 7.30776131153106689453e-01) (32, 1.86156123876571655273e-01) (33, 4.72061276435852050781e-01) (34, 4.37617659568786621094e-01) (35, 5.19124209880828857422e-01) (36, 4.75683331489562988281e-01) (37, 8.75963985919952392578e-01) (38, 4.55390542745590209961e-01) (39, 8.14002752304077148438e-01) (40, -1.88336887359619140625e+01) (41, 1.75527513027191162109e-01) (42, -2.25877399444580078125e+01) (43, 8.53269934654235839844e-01) (0, -1.01168870925903320312e+00) (1, 5.08698616027832031250e+01) (2, 1.50000000000000000000e+03) (3, 1.25856084823608398438e+01) (4, -8.80601654052734375000e+01) (5, 1.50000000000000000000e+03) (6, 1.50000000000000000000e+03) (7, 7.79178366065025329590e-02) (8, 4.88266706466674804688e+00) (9, -5.68987250328063964844e-01) (10, 2.42599320411682128906e+00) (11, 1.50000000000000000000e+03) (12, 1.50000000000000000000e+03) (13, 1.50000000000000000000e+03) (14, -6.91533088684082031250e-01) (15, -2.67545461654663085938e-01) (16, -1.32995736598968505859e+00) (17, -1.53714179992675781250e-01) (18, 1.50000000000000000000e+03) (19, 1.01044631004333496094e+00) (20, -2.99483394622802734375e+00) (21, -4.94061373174190521240e-02) (22, -3.58289331197738647461e-01) (23, 3.89712595939636230469e+00) (24, -1.55188763141632080078e+00) (25, 1.49875231933593750000e+03) (26, -9.63077392578125000000e+01) (27, 2.90153900146484375000e+02) (28, 2.14031982421875000000e+01) (29, -4.50722808837890625000e+01) (30, 9.21709597110748291016e-01) (31, 8.66129815578460693359e-01) (32, 9.36655342578887939453e-01) (33, 1.03901433944702148438e+00) (34, 1.02837145328521728516e+00) (35, 4.91224884986877441406e-01) (36, 6.95676803588867187500e-01) (37, 3.22781294584274291992e-01) (38, 7.45247662067413330078e-01) (39, 6.66605949401855468750e-01) (40, 2.79513732910156250000e+02) (41, 5.85081934928894042969e-01) (42, 2.90627105712890625000e+02) (43, 8.18096518516540527344e-01) (0, 3.26112532615661621094e+00) (1, 3.23723816871643066406e+00) (2, 1.50000000000000000000e+03) (3, 1.06847725808620452881e-01) (4, -5.44655647277832031250e+01) (5, 1.50000000000000000000e+03) (6, 1.50000000000000000000e+03) (7, 1.68155975341796875000e+01) (8, -1.32724676132202148438e+01) (9, 3.34748816490173339844e+00) (10, 4.05336427688598632812e+00) (11, 1.50000000000000000000e+03) (12, 1.50000000000000000000e+03) (13, 1.50000000000000000000e+03) (14, -7.78648674488067626953e-01) (15, 7.87132024765014648438e-01) (16, 2.17702418565750122070e-01) (17, -3.67808508872985839844e+00) (18, 7.00606079101562500000e+01) (19, 2.03292655944824218750e+00) (20, 1.69194388389587402344e+00) (21, 4.72241687774658203125e+00) (22, 8.49043178558349609375e+00) (23, -5.25497293472290039062e+00) (24, 1.70453701019287109375e+01) (25, 1.34763062000274658203e+00) (26, -2.32555317878723144531e+00) (27, -7.51685180664062500000e+01) (28, 2.69099235534667968750e+00) (29, 7.61981129646301269531e-01) (30, 6.23317599296569824219e-01) (31, 2.85355478525161743164e-01) (32, 1.01830148696899414062e+00) (33, 8.61042916774749755859e-01) (34, 5.05049884319305419922e-01) (35, 7.27785766124725341797e-01) (36, 2.34589472413063049316e-01) (37, 1.87564030289649963379e-01) (38, 1.05510270595550537109e+00) (39, 9.41630959510803222656e-01) (40, -2.81759643554687500000e+00) (41, 6.63443088531494140625e-01) (42, -7.43476104736328125000e+00) (43, 1.57681450247764587402e-01) (0, 8.43351185321807861328e-01) (1, 6.42443597316741943359e-01) (2, 1.50000000000000000000e+03) (3, -8.40327858924865722656e-01) (4, -4.59958851337432861328e-01) (5, 1.50000000000000000000e+03) (6, 1.50000000000000000000e+03) (7, 2.52765417098999023438e+00) (8, 5.54333150386810302734e-01) (9, -1.53141379356384277344e+00) (10, 1.00191497802734375000e+01) (11, 1.50000000000000000000e+03) (12, 1.50000000000000000000e+03) (13, 1.50000000000000000000e+03) (14, -4.36244048178195953369e-02) (15, 2.72052496671676635742e-01) (16, 7.99475610256195068359e-02) (17, -1.55696702003479003906e+00) (18, 1.50000000000000000000e+03) (19, 7.33082413673400878906e-01) (20, -1.21240968704223632812e+01) (21, -6.97624588012695312500e+00) (22, -5.33761167526245117188e+00) (23, 5.43265104293823242188e-01) (24, 2.16832295060157775879e-01) (25, -3.74364471435546875000e+00) (26, 8.92745196819305419922e-01) (27, -4.23037910461425781250e+00) (28, -1.06271278858184814453e+00) (29, 4.91720914840698242188e+00) (30, 2.01510787010192871094e-01) (31, 9.61476922035217285156e-01) (32, 9.35054600238800048828e-01) (33, 3.29808831214904785156e-01) (34, 3.80549192428588867188e-01) (35, 8.13289403915405273438e-01) (36, 1.86794355511665344238e-01) (37, 6.76552414894104003906e-01) (38, 6.04164004325866699219e-01) (39, 6.51521146297454833984e-01) (40, 7.09777927398681640625e+00) (41, 8.79542827606201171875e-01) (42, 1.96498823165893554688e+00) (43, -3.47554743289947509766e-01) (44, -1.85941390991210937500e+01) (45, 7.95270061492919921875e+00) (46, 7.25530195236206054688e+00) (47, 2.04526233673095703125e+00) (48, 4.22957944869995117188e+00) (49, 3.80607199668884277344e+00) (50, 2.89938807487487792969e+00) (51, 4.07458496093750000000e+00) (52, 7.93000364303588867188e+00) (53, 1.78941118717193603516e+00) (54, 9.38210844993591308594e-01) (55, 5.27487611770629882812e+00) (56, 1.49680244922637939453e+00) (57, 2.23214969635009765625e+01) (58, 7.59488010406494140625e+00) (59, 7.39376144409179687500e+01) (60, 8.54123210906982421875e+00) (61, 3.91876673698425292969e+00) (62, 1.81411838531494140625e+01) (63, 4.05250597000122070312e+00) (64, -1.33755340576171875000e+01) (65, 1.89899384975433349609e+00) (44, 2.46423873901367187500e+01) (45, -2.29308858513832092285e-01) (46, -1.20906043052673339844e+00) (47, -5.00514268875122070312e+00) (48, -1.27506518363952636719e+00) (49, -1.27936959266662597656e+00) (50, -7.64608085155487060547e-01) (51, -1.53967022895812988281e+00) (52, -8.05092632770538330078e-01) (53, -4.09578353166580200195e-01) (54, -6.75565624237060546875e+00) (55, 1.88563861846923828125e+01) (56, -5.85890889167785644531e-01) (57, 3.84744286537170410156e+00) (58, -2.95763230323791503906e+00) (59, -1.28711719512939453125e+01) (60, -3.08263015747070312500e+00) (61, -5.75344681739807128906e-01) (62, -5.42096734046936035156e-01) (63, 4.63756263256072998047e-01) (64, -6.81772291660308837891e-01) (65, 9.92190837860107421875e-01) (44, -2.05274850130081176758e-01) (45, 1.70204535126686096191e-01) (46, -6.93572092056274414062e+00) (47, 3.42386698722839355469e+00) (48, 3.28716546297073364258e-01) (49, -2.47106462717056274414e-01) (50, 4.38811206817626953125e+00) (51, 2.87277340888977050781e-01) (52, -1.02563428878784179688e+00) (53, 5.47524118423461914062e+00) (54, 9.34207630157470703125e+00) (55, -5.64734172821044921875e+00) (56, 4.01806879043579101562e+00) (57, -2.81375551223754882812e+00) (58, 5.44033825397491455078e-01) (59, -1.27013225555419921875e+01) (60, -1.27621495723724365234e+00) (61, 1.64000436663627624512e-01) (62, -7.19476878643035888672e-01) (63, 1.72072187066078186035e-01) (64, 4.67721891403198242188e+00) (65, -3.22347074747085571289e-01) (44, 7.63412177562713623047e-01) (45, -5.67110061645507812500e-01) (46, 2.60329556465148925781e+00) (47, 2.67236447334289550781e+00) (48, -1.62047731876373291016e+00) (49, 5.85440826416015625000e+00) (50, -7.77319288253784179688e+00) (51, -6.69741332530975341797e-01) (52, -1.32668733596801757812e-01) (53, -3.93319892883300781250e+00) (54, 4.13035202026367187500e+00) (55, 1.10677826404571533203e+00) (56, -6.02066469192504882812e+00) (57, 1.84526324272155761719e+00) (58, 2.81041204929351806641e-01) (59, 7.51930534839630126953e-01) (60, -9.10784602165222167969e-01) (61, -4.66947841644287109375e+00) (62, 3.79349738359451293945e-01) (63, 3.07120561599731445312e+00) (64, 4.67859840393066406250e+00) (65, 9.96420741081237792969e-01) (44, -1.84357738494873046875e+00) (45, -6.79486453533172607422e-01) (46, 2.61336535215377807617e-01) (47, -7.92742788791656494141e-01) (48, 6.54217481613159179688e-01) (49, 7.45022818446159362793e-02) (50, 5.72280526161193847656e-01) (51, 3.67872774600982666016e-01) (52, 6.31037950515747070312e-01) (53, 8.38541269302368164062e-01) (54, -1.21450829505920410156e+00) (55, 5.17123401165008544922e-01) (56, 8.13869297504425048828e-01) (57, 2.04547023773193359375e+00) (58, 7.34665393829345703125e-01) (59, 2.20494818687438964844e+00) (60, -2.34794512391090393066e-01) (61, 3.56874465942382812500e-01) (62, 1.04246759414672851562e+00) (63, -1.16500902175903320312e+00) (64, -1.68929433822631835938e+00) (65, -6.71514332294464111328e-01) 
