FANN_FLO_2.1
num_layers=3
learning_rate=0.070000
connection_rate=1.000000
network_type=0
learning_momentum=0.000000
training_algorithm=2
train_error_function=1
train_stop_function=0
cascade_output_change_fraction=0.010000
quickprop_decay=-0.000100
quickprop_mu=1.750000
rprop_increase_factor=1.200000
rprop_decrease_factor=0.500000
rprop_delta_min=0.000000
rprop_delta_max=50.000000
rprop_delta_zero=0.100000
cascade_output_stagnation_epochs=12
cascade_candidate_change_fraction=0.010000
cascade_candidate_stagnation_epochs=12
cascade_max_out_epochs=150
cascade_min_out_epochs=50
cascade_max_cand_epochs=150
cascade_min_cand_epochs=50
cascade_num_candidate_groups=2
bit_fail_limit=3.49999994039535522461e-01
cascade_candidate_limit=1.00000000000000000000e+03
cascade_weight_multiplier=4.00000005960464477539e-01
cascade_activation_functions_count=10
cascade_activation_functions=3 5 7 8 10 11 14 15 16 17 
cascade_activation_steepnesses_count=4
cascade_activation_steepnesses=2.50000000000000000000e-01 5.00000000000000000000e-01 7.50000000000000000000e-01 1.00000000000000000000e+00 
layer_sizes=44 22 2 
scale_included=0
neurons (num_inputs, activation_function, activation_steepness)=(0, 0, 0.00000000000000000000e+00) (0, 0, 0.00000000000000000000e+00) (0, 0, 0.00000000000000000000e+00) (0, 0, 0.00000000000000000000e+00) (0, 0, 0.00000000000000000000e+00) (0, 0, 0.00000000000000000000e+00) (0, 0, 0.00000000000000000000e+00) (0, 0, 0.00000000000000000000e+00) (0, 0, 0.00000000000000000000e+00) (0, 0, 0.00000000000000000000e+00) (0, 0, 0.00000000000000000000e+00) (0, 0, 0.00000000000000000000e+00) (0, 0, 0.00000000000000000000e+00) (0, 0, 0.00000000000000000000e+00) (0, 0, 0.00000000000000000000e+00) (0, 0, 0.00000000000000000000e+00) (0, 0, 0.00000000000000000000e+00) (0, 0, 0.00000000000000000000e+00) (0, 0, 0.00000000000000000000e+00) (0, 0, 0.00000000000000000000e+00) (0, 0, 0.00000000000000000000e+00) (0, 0, 0.00000000000000000000e+00) (0, 0, 0.00000000000000000000e+00) (0, 0, 0.00000000000000000000e+00) (0, 0, 0.00000000000000000000e+00) (0, 0, 0.00000000000000000000e+00) (0, 0, 0.00000000000000000000e+00) (0, 0, 0.00000000000000000000e+00) (0, 0, 0.00000000000000000000e+00) (0, 0, 0.00000000000000000000e+00) (0, 0, 0.00000000000000000000e+00) (0, 0, 0.00000000000000000000e+00) (0, 0, 0.00000000000000000000e+00) (0, 0, 0.00000000000000000000e+00) (0, 0, 0.00000000000000000000e+00) (0, 0, 0.00000000000000000000e+00) (0, 0, 0.00000000000000000000e+00) (0, 0, 0.00000000000000000000e+00) (0, 0, 0.00000000000000000000e+00) (0, 0, 0.00000000000000000000e+00) (0, 0, 0.00000000000000000000e+00) (0, 0, 0.00000000000000000000e+00) (0, 0, 0.00000000000000000000e+00) (0, 0, 0.00000000000000000000e+00) (44, 6, 1.00000001490116119385e-01) (44, 6, 1.00000001490116119385e-01) (44, 6, 1.00000001490116119385e-01) (44, 6, 1.00000001490116119385e-01) (44, 6, 1.00000001490116119385e-01) (44, 6, 1.00000001490116119385e-01) (44, 6, 1.00000001490116119385e-01) (44, 6, 1.00000001490116119385e-01) (44, 6, 1.00000001490116119385e-01) (44, 6, 1.00000001490116119385e-01) (44, 6, 1.00000001490116119385e-01) (44, 6, 1.00000001490116119385e-01) (44, 6, 1.00000001490116119385e-01) (44, 6, 1.00000001490116119385e-01) (44, 6, 1.00000001490116119385e-01) (44, 6, 1.00000001490116119385e-01) (44, 6, 1.00000001490116119385e-01) (44, 6, 1.00000001490116119385e-01) (44, 6, 1.00000001490116119385e-01) (44, 6, 1.00000001490116119385e-01) (44, 6, 1.00000001490116119385e-01) (0, 6, 1.00000001490116119385e-01) (22, 6, 1.00000001490116119385e-01) (0, 6, 1.00000001490116119385e-01) 
connections (connected_to_neuron, weight)=(0, -1.74027423858642578125e+01) (1, 3.40594863891601562500e+01) (2, 1.50000000000000000000e+03) (3, 1.01414251327514648438e+01) (4, 1.55944366455078125000e+02) (5, 1.50000000000000000000e+03) (6, 1.50000000000000000000e+03) (7, -3.89475417137145996094e+00) (8, 1.50000000000000000000e+03) (9, 3.59352111816406250000e+00) (10, 4.27552270889282226562e+00) (11, 1.50000000000000000000e+03) (12, 1.50000000000000000000e+03) (13, 1.50000000000000000000e+03) (14, -6.42382383346557617188e-01) (15, -1.61516681313514709473e-01) (16, -1.35777544975280761719e+00) (17, -7.19840545654296875000e+01) (18, 4.79375076293945312500e+01) (19, 1.97932410240173339844e+00) (20, 1.47655487060546875000e+00) (21, -1.19492495059967041016e+00) (22, -5.35352210998535156250e+01) (23, -2.31401622295379638672e-01) (24, -2.58312970399856567383e-01) (25, 1.45724430084228515625e+01) (26, -1.17941111326217651367e-01) (27, -1.23015892505645751953e+00) (28, -6.91488695144653320312e+00) (29, -5.80406486988067626953e-01) (30, 7.26069271564483642578e-01) (31, 1.27839195728302001953e+00) (32, 3.08388054370880126953e-01) (33, 2.40356445312500000000e-01) (34, 4.71905499696731567383e-01) (35, 5.69560706615447998047e-01) (36, 4.53307390213012695312e-01) (37, 1.39987504482269287109e+00) (38, 7.51308977603912353516e-01) (39, 8.89370918273925781250e-01) (40, 9.18346881866455078125e+00) (41, -1.82427716255187988281e+00) (42, -3.15049481391906738281e+00) (43, 1.45738697052001953125e+00) (0, 1.58709135055541992188e+01) (1, -7.08020782470703125000e+00) (2, 1.50000000000000000000e+03) (3, -1.90876007080078125000e+01) (4, 5.36982116699218750000e+01) (5, 1.50000000000000000000e+03) (6, 1.50000000000000000000e+03) (7, -7.16018581390380859375e+00) (8, 1.50000000000000000000e+03) (9, 1.29105052947998046875e+01) (10, -7.48115062713623046875e+00) (11, 1.50000000000000000000e+03) (12, 1.50000000000000000000e+03) (13, 1.50000000000000000000e+03) (14, 1.59598760604858398438e+01) (15, -3.29122328758239746094e+00) (16, -3.49276504516601562500e+01) (17, -1.43499176025390625000e+02) (18, 2.05159713745117187500e+02) (19, 1.49702036380767822266e+00) (20, 1.77429828643798828125e+01) (21, -3.37444996833801269531e+00) (22, 1.77384872436523437500e+01) (23, 2.84404277801513671875e+00) (24, 3.48149375915527343750e+01) (25, -1.96338157653808593750e+01) (26, -1.61613330841064453125e+01) (27, 4.93975830078125000000e+01) (28, 5.67008819580078125000e+01) (29, -1.42096967697143554688e+01) (30, 5.30701398849487304688e-01) (31, -3.02199387550354003906e+00) (32, 4.03378427028656005859e-01) (33, 2.79948043823242187500e+00) (34, 7.30013906955718994141e-01) (35, -3.19263768196105957031e+00) (36, 5.50383329391479492188e-01) (37, -7.58354759216308593750e+00) (38, 6.24965012073516845703e-01) (39, 2.52275333404541015625e+01) (40, 1.41196640014648437500e+02) (41, -4.92475032806396484375e+00) (42, 3.32123832702636718750e+01) (43, 9.32371437549591064453e-01) (0, -7.15079421997070312500e+01) (1, 1.50000000000000000000e+03) (2, 1.50000000000000000000e+03) (3, 3.98136672973632812500e+01) (4, -5.99225330352783203125e+00) (5, 1.50000000000000000000e+03) (6, 1.50000000000000000000e+03) (7, -1.45041313171386718750e+01) (8, 1.50000000000000000000e+03) (9, -3.19704780578613281250e+01) (10, -3.54143257141113281250e+01) (11, 1.50000000000000000000e+03) (12, 1.50000000000000000000e+03) (13, 1.50000000000000000000e+03) (14, 5.65884552001953125000e+01) (15, -1.36607694625854492188e+01) (16, -3.20325136184692382812e-01) (17, -1.47643032073974609375e+01) (18, 2.54853458404541015625e+01) (19, 1.73895990848541259766e+00) (20, -2.61129169464111328125e+01) (21, 3.67220382690429687500e+01) (22, -1.47675971984863281250e+01) (23, 1.12336516380310058594e+00) (24, 6.18371105194091796875e+00) (25, 5.65712690353393554688e-01) (26, 8.77364883422851562500e+01) (27, 2.70650405883789062500e+01) (28, -1.04626293182373046875e+01) (29, -5.24915218353271484375e-01) (30, 8.98245215415954589844e-01) (31, -4.71543788909912109375e+00) (32, 7.25813925266265869141e-01) (33, 1.17748252868652343750e+02) (34, 6.69273316860198974609e-01) (35, 1.22415447235107421875e+00) (36, 8.82047295570373535156e-01) (37, 4.90094232559204101562e+00) (38, 5.61223804950714111328e-01) (39, -5.61941337585449218750e+01) (40, 8.46624145507812500000e+01) (41, -7.45912253856658935547e-01) (42, -1.02179031372070312500e+01) (43, 1.77515661716461181641e+00) (0, 6.91090464591979980469e-01) (1, 1.28058564662933349609e+00) (2, 1.50000000000000000000e+03) (3, -2.99580383300781250000e+00) (4, -7.75274047851562500000e+01) (5, 1.50000000000000000000e+03) (6, 1.50000000000000000000e+03) (7, -5.32618808746337890625e+00) (8, 1.50000000000000000000e+03) (9, -2.46255183219909667969e+00) (10, 1.12430000305175781250e+01) (11, 1.50000000000000000000e+03) (12, 1.50000000000000000000e+03) (13, 1.50000000000000000000e+03) (14, -1.19844831526279449463e-01) (15, -4.41325426101684570312e-01) (16, -2.53447234630584716797e-01) (17, -5.40038585662841796875e+00) (18, -2.89692497253417968750e+01) (19, 1.32123935222625732422e+00) (20, 1.31966710090637207031e+00) (21, -3.43808579444885253906e+00) (22, 4.19588851928710937500e+01) (23, -1.60389706492424011230e-01) (24, -7.71982669830322265625e-02) (25, 1.42056807875633239746e-01) (26, -3.97358107566833496094e+00) (27, -9.22520399093627929688e-01) (28, -1.50000000000000000000e+03) (29, -4.94257497787475585938e+00) (30, 2.67678499221801757812e-01) (31, 1.17023396492004394531e+00) (32, 7.34343528747558593750e-01) (33, 5.05518734455108642578e-01) (34, 7.76296079158782958984e-01) (35, 9.15035843849182128906e-01) (36, 4.29860234260559082031e-01) (37, 1.40650987625122070312e+00) (38, 7.06798136234283447266e-01) (39, 6.56452715396881103516e-01) (40, -3.72515220642089843750e+01) (41, -1.09399962425231933594e+00) (42, -3.28218722343444824219e+00) (43, 1.23875938355922698975e-01) (0, -1.69738063812255859375e+01) (1, -2.27743358612060546875e+01) (2, 1.50000000000000000000e+03) (3, -5.09955711364746093750e+01) (4, -7.80290651321411132812e+00) (5, 1.50000000000000000000e+03) (6, 1.50000000000000000000e+03) (7, 3.49906873703002929688e+00) (8, 1.50000000000000000000e+03) (9, -4.30471324920654296875e+00) (10, 5.65080070495605468750e+01) (11, 1.50000000000000000000e+03) (12, 1.50000000000000000000e+03) (13, 1.50000000000000000000e+03) (14, 3.43935203552246093750e+01) (15, 1.81089723110198974609e+00) (16, 9.44952774047851562500e+00) (17, 5.74033851623535156250e+01) (18, 8.62262420654296875000e+01) (19, 9.43828582763671875000e+00) (20, -3.53418564796447753906e+00) (21, 2.78322124481201171875e+01) (22, -5.17224578857421875000e+01) (23, 1.55668058395385742188e+01) (24, 1.25303010940551757812e+01) (25, -2.03677940368652343750e+00) (26, 7.21696043014526367188e+00) (27, 1.02945661544799804688e+00) (28, -4.81310195922851562500e+01) (29, 4.44670372009277343750e+01) (30, 5.33867537975311279297e-01) (31, 5.27052211761474609375e+00) (32, 2.51433402299880981445e-01) (33, -2.11389827728271484375e+01) (34, 2.84943729639053344727e-01) (35, 1.44857666015625000000e+02) (36, 8.36191117763519287109e-01) (37, -6.98370361328125000000e+01) (38, 8.12506794929504394531e-01) (39, 3.04296088218688964844e+00) (40, 1.18655151367187500000e+02) (41, 4.64316487312316894531e-01) (42, -4.75334320068359375000e+01) (43, 7.86468327045440673828e-01) (0, -1.39995861053466796875e+01) (1, 1.19590553283691406250e+02) (2, 1.50000000000000000000e+03) (3, 2.45148677825927734375e+01) (4, -1.50000000000000000000e+03) (5, 1.50000000000000000000e+03) (6, 1.50000000000000000000e+03) (7, -5.34707374572753906250e+01) (8, 1.50000000000000000000e+03) (9, -1.46336349487304687500e+02) (10, -1.86549514770507812500e+02) (11, 1.50000000000000000000e+03) (12, 1.50000000000000000000e+03) (13, 1.50000000000000000000e+03) (14, -6.15127086639404296875e+00) (15, -7.34259724617004394531e-01) (16, -7.22323751449584960938e+00) (17, 3.67475700378417968750e+00) (18, -2.49058494567871093750e+01) (19, 1.54077482223510742188e+00) (20, 4.58266019821166992188e+00) (21, 4.22679567337036132812e+00) (22, 1.71883563995361328125e+01) (23, -1.65350711345672607422e+00) (24, 1.18161087036132812500e+01) (25, 8.22771430015563964844e-01) (26, -9.65266799926757812500e+00) (27, 1.36270534992218017578e+00) (28, -4.01347351074218750000e+01) (29, 9.90523695945739746094e-01) (30, 2.04252973198890686035e-01) (31, 2.52426886558532714844e+00) (32, 5.24990975856781005859e-01) (33, -3.46574831008911132812e+00) (34, 5.01019835472106933594e-01) (35, 1.31344234943389892578e+00) (36, 1.86886861920356750488e-01) (37, 5.59274911880493164062e+00) (38, 6.56147181987762451172e-01) (39, 3.53913903236389160156e+00) (40, -2.66367473602294921875e+01) (41, -1.68950824737548828125e+01) (42, 2.71220951080322265625e+01) (43, 3.25444787740707397461e-01) (0, 5.65169858932495117188e+00) (1, -6.35889720916748046875e+00) (2, 1.50000000000000000000e+03) (3, -1.50000000000000000000e+03) (4, -1.50000000000000000000e+03) (5, 1.50000000000000000000e+03) (6, 1.50000000000000000000e+03) (7, -2.92536592483520507812e+00) (8, 1.50000000000000000000e+03) (9, -2.26588058471679687500e+00) (10, -5.65569572448730468750e+01) (11, 1.50000000000000000000e+03) (12, 1.50000000000000000000e+03) (13, 1.50000000000000000000e+03) (14, -4.39642876386642456055e-01) (15, 7.07617461681365966797e-01) (16, -1.64189946651458740234e+00) (17, 5.04373311996459960938e+00) (18, -2.73014450073242187500e+01) (19, 1.98300659656524658203e+00) (20, -5.10411262512207031250e+00) (21, 4.65802097320556640625e+00) (22, -2.36231493949890136719e+00) (23, -2.56814450025558471680e-01) (24, 8.79005718231201171875e+00) (25, 1.40999805927276611328e+00) (26, -2.47192144393920898438e+00) (27, -3.73528838157653808594e+00) (28, -9.28267300128936767578e-01) (29, -1.16570806503295898438e+00) (30, 5.05324423313140869141e-01) (31, 1.62444376945495605469e+00) (32, 7.44951307773590087891e-01) (33, -9.00476217269897460938e-01) (34, 7.06819772720336914062e-01) (35, 1.53946802020072937012e-01) (36, 6.44117712974548339844e-01) (37, 6.01926863193511962891e-01) (38, 7.65832185745239257812e-01) (39, 1.44940960407257080078e+00) (40, 8.60976755619049072266e-01) (41, -4.90238332748413085938e+00) (42, -5.97132110595703125000e+00) (43, 3.56880128383636474609e-01) (0, -7.07050476074218750000e+01) (1, 1.50000000000000000000e+03) (2, 1.50000000000000000000e+03) (3, 1.08625869750976562500e+02) (4, 1.31225280761718750000e+02) (5, 1.50000000000000000000e+03) (6, 1.50000000000000000000e+03) (7, 9.83373737335205078125e+00) (8, 1.50000000000000000000e+03) (9, 6.01307754516601562500e+01) (10, -2.37317085266113281250e+00) (11, 1.50000000000000000000e+03) (12, 1.50000000000000000000e+03) (13, 1.50000000000000000000e+03) (14, 2.49935379028320312500e+01) (15, 1.09961490631103515625e+01) (16, 8.76981830596923828125e+00) (17, -3.76736145019531250000e+01) (18, 8.54666748046875000000e+01) (19, 2.29190707206726074219e+00) (20, 1.48754477500915527344e+00) (21, 2.54245686531066894531e+00) (22, 2.55604114532470703125e+01) (23, 1.80510246753692626953e+00) (24, 4.24417991638183593750e+01) (25, 1.39897584915161132812e+00) (26, 8.04407348632812500000e+01) (27, 3.42592692375183105469e+00) (28, -8.42154846191406250000e+01) (29, 1.59482741355895996094e+00) (30, 8.35828959941864013672e-01) (31, 6.04752016067504882812e+00) (32, 5.14834821224212646484e-01) (33, 1.96019336581230163574e-02) (34, 4.83760416507720947266e-01) (35, 7.98179030418395996094e-01) (36, 3.11686813831329345703e-01) (37, 4.60261917114257812500e+00) (38, 8.46227645874023437500e-01) (39, 2.85262346267700195312e+00) (40, 6.92090377807617187500e+01) (41, 1.73110616207122802734e+00) (42, 2.09155235290527343750e+01) (43, 1.02369368076324462891e+00) (0, 1.39858121871948242188e+01) (1, 2.84924964904785156250e+01) (2, 1.50000000000000000000e+03) (3, 1.41101379394531250000e+02) (4, -1.82555465698242187500e+02) (5, 1.50000000000000000000e+03) (6, 1.50000000000000000000e+03) (7, 5.10549259185791015625e+00) (8, 1.50000000000000000000e+03) (9, -7.75741043090820312500e+01) (10, -7.44052658081054687500e+01) (11, 1.50000000000000000000e+03) (12, 1.50000000000000000000e+03) (13, 1.50000000000000000000e+03) (14, 1.12872009277343750000e+02) (15, -6.66191637516021728516e-01) (16, 3.84401779174804687500e+01) (17, 4.33760833740234375000e+01) (18, 3.47211181640625000000e+02) (19, 1.44134294986724853516e+00) (20, 3.01073789596557617188e+00) (21, -1.38064508438110351562e+01) (22, 9.44575500488281250000e+01) (23, -3.81680603027343750000e+01) (24, 5.41996269226074218750e+01) (25, 7.21886098384857177734e-01) (26, 4.63469238281250000000e+01) (27, 1.04605066776275634766e+00) (28, -4.12283668518066406250e+01) (29, -2.23654518127441406250e+01) (30, 8.44488441944122314453e-01) (31, 6.18376922607421875000e+00) (32, 7.91861474514007568359e-01) (33, 3.16815328598022460938e+00) (34, 7.00137853622436523438e-01) (35, -1.40253620147705078125e+01) (36, 7.81170904636383056641e-01) (37, -1.57527437210083007812e+01) (38, 2.54894793033599853516e-01) (39, 1.07144527435302734375e+01) (40, 2.56159759521484375000e+02) (41, 8.37490463256835937500e+00) (42, -3.51829986572265625000e+01) (43, 1.14632308483123779297e+00) (0, 1.69683094024658203125e+01) (1, 1.50000000000000000000e+03) (2, 1.50000000000000000000e+03) (3, 1.11358673095703125000e+02) (4, -8.03449707031250000000e+01) (5, 1.50000000000000000000e+03) (6, 1.50000000000000000000e+03) (7, -3.43708305358886718750e+01) (8, 1.50000000000000000000e+03) (9, -8.47872734069824218750e+00) (10, -6.50391921997070312500e+01) (11, 1.50000000000000000000e+03) (12, 1.50000000000000000000e+03) (13, 1.50000000000000000000e+03) (14, 4.43625330924987792969e-01) (15, -3.73472669161856174469e-03) (16, 5.65160036087036132812e-01) (17, 4.88097381591796875000e+00) (18, 3.15528297424316406250e+00) (19, 2.06423807144165039062e+00) (20, -2.22134757041931152344e+00) (21, 1.04516162872314453125e+01) (22, -3.24156913757324218750e+01) (23, 2.04922771453857421875e+00) (24, 6.66548614501953125000e+01) (25, 1.33845840454101562500e+02) (26, 4.63952636718750000000e+00) (27, -3.73753714561462402344e+00) (28, 2.93618240356445312500e+01) (29, 2.77815628051757812500e+00) (30, 7.46739506721496582031e-01) (31, 1.40175271034240722656e+00) (32, 9.12529468536376953125e-01) (33, -2.07487654685974121094e+00) (34, 8.35765600204467773438e-01) (35, -2.72162580490112304688e+00) (36, 6.37387752532958984375e-01) (37, -1.70116691589355468750e+01) (38, 7.64256298542022705078e-01) (39, 6.47376775741577148438e+00) (40, 2.13394210815429687500e+02) (41, -1.26245088577270507812e+01) (42, -9.67721405029296875000e+01) (43, 1.48182284832000732422e+00) (0, 4.06845474243164062500e+01) (1, -1.35403137207031250000e+02) (2, 1.50000000000000000000e+03) (3, -2.60334720611572265625e+01) (4, 7.81730346679687500000e+01) (5, 1.50000000000000000000e+03) (6, 1.50000000000000000000e+03) (7, 1.01070725917816162109e+00) (8, 1.50000000000000000000e+03) (9, 5.79538345336914062500e+00) (10, -1.48822908401489257812e+01) (11, 1.50000000000000000000e+03) (12, 1.50000000000000000000e+03) (13, 1.50000000000000000000e+03) (14, 3.81624102592468261719e+00) (15, -4.37752082943916320801e-02) (16, -1.62832707166671752930e-01) (17, 7.04484558105468750000e+01) (18, -2.63773136138916015625e+01) (19, 1.82997107505798339844e+00) (20, 1.86265873908996582031e+00) (21, 3.05459403991699218750e+00) (22, -1.59722564697265625000e+02) (23, -4.53105747699737548828e-01) (24, -1.13149919509887695312e+01) (25, -1.90042095184326171875e+01) (26, 1.19249687194824218750e+01) (27, -6.14331066608428955078e-01) (28, 4.04292440414428710938e+00) (29, 1.22052917480468750000e+01) (30, 9.15356397628784179688e-01) (31, 2.54685950279235839844e+00) (32, 5.50029635429382324219e-01) (33, -1.64843444824218750000e+01) (34, 6.95917248725891113281e-01) (35, 1.26841461658477783203e+00) (36, 2.64987528324127197266e-01) (37, 2.28289413452148437500e+01) (38, 3.41186016798019409180e-01) (39, -1.49861688613891601562e+01) (40, 3.21075408935546875000e+02) (41, -2.77185142040252685547e-01) (42, 1.96113700866699218750e+01) (43, 3.28223675489425659180e-01) (0, 8.04015350341796875000e+01) (1, -1.46299850463867187500e+02) (2, 1.50000000000000000000e+03) (3, -4.40944976806640625000e+01) (4, -4.42074813842773437500e+01) (5, 1.50000000000000000000e+03) (6, 1.50000000000000000000e+03) (7, 3.90019340515136718750e+01) (8, 1.50000000000000000000e+03) (9, 2.42087688446044921875e+01) (10, 3.84755744934082031250e+01) (11, 1.50000000000000000000e+03) (12, 1.50000000000000000000e+03) (13, 1.50000000000000000000e+03) (14, -1.57567415237426757812e+01) (15, 2.57885494232177734375e+01) (16, 9.58388984203338623047e-01) (17, -8.58062820434570312500e+01) (18, 1.34310867309570312500e+02) (19, 1.13162481784820556641e+00) (20, 9.14346122741699218750e+00) (21, -1.81920795440673828125e+01) (22, 9.97168197631835937500e+01) (23, -3.85122585296630859375e+00) (24, 8.76080780029296875000e+01) (25, -5.83677709102630615234e-01) (26, 5.42566251754760742188e+00) (27, 2.80478668212890625000e+01) (28, 1.56880292892456054688e+01) (29, 2.71018028259277343750e-01) (30, 8.74974012374877929688e-01) (31, -1.22447884082794189453e+00) (32, 3.11947256326675415039e-01) (33, -3.29631004333496093750e+01) (34, 6.76793992519378662109e-01) (35, 8.52699518203735351562e-01) (36, 7.93030083179473876953e-01) (37, 2.26568317413330078125e+00) (38, 4.93681281805038452148e-01) (39, -1.02551661431789398193e-01) (40, 1.37997924804687500000e+02) (41, -2.12290263175964355469e+00) (42, 5.11852493286132812500e+01) (43, 1.51811301708221435547e+00) (0, -1.68928623199462890625e+01) (1, 1.50000000000000000000e+03) (2, 1.50000000000000000000e+03) (3, 9.86993026733398437500e+01) (4, -1.12798929214477539062e+01) (5, 1.50000000000000000000e+03) (6, 1.50000000000000000000e+03) (7, -1.69525432586669921875e+00) (8, 1.50000000000000000000e+03) (9, 4.83407936096191406250e+01) (10, -2.24383983612060546875e+01) (11, 1.50000000000000000000e+03) (12, 1.50000000000000000000e+03) (13, 1.50000000000000000000e+03) (14, 5.96863508224487304688e+00) (15, 3.13078956604003906250e+01) (16, -3.48925514221191406250e+01) (17, 5.20763778686523437500e+01) (18, -7.89309387207031250000e+01) (19, 1.34686350822448730469e+00) (20, 4.03421669006347656250e+01) (21, 1.19011478424072265625e+01) (22, -1.86393852233886718750e+01) (23, -8.61674785614013671875e+00) (24, -4.95764579772949218750e+01) (25, 4.33575451374053955078e-01) (26, 2.55545711517333984375e+01) (27, 9.71566867828369140625e+00) (28, 1.41625440120697021484e+00) (29, 1.49494905471801757812e+01) (30, 2.86435335874557495117e-01) (31, 3.37736535072326660156e+00) (32, 3.64824295043945312500e-01) (33, -2.78886485099792480469e+00) (34, 3.23864787817001342773e-01) (35, 1.66562974452972412109e+00) (36, 2.07940801978111267090e-01) (37, 4.61473369598388671875e+00) (38, 7.47177779674530029297e-01) (39, -7.15638780593872070312e+00) (40, 5.76290832519531250000e+02) (41, 4.04349517822265625000e+00) (42, 1.09133506774902343750e+02) (43, 7.32690453529357910156e-01) (0, -2.24489765167236328125e+01) (1, 8.11197738647460937500e+01) (2, 1.50000000000000000000e+03) (3, -3.55859756469726562500e+01) (4, 1.15299510955810546875e+01) (5, 1.50000000000000000000e+03) (6, 1.50000000000000000000e+03) (7, -3.00832443237304687500e+01) (8, 1.50000000000000000000e+03) (9, -3.47484245300292968750e+01) (10, 1.49101110839843750000e+03) (11, 1.50000000000000000000e+03) (12, 1.50000000000000000000e+03) (13, 1.50000000000000000000e+03) (14, 1.10727367401123046875e+01) (15, 2.87335128784179687500e+01) (16, -2.93296909332275390625e+00) (17, -1.05978469848632812500e+02) (18, -1.25526573181152343750e+02) (19, -9.16713654994964599609e-01) (20, 1.24284648895263671875e+01) (21, -6.94157695770263671875e+00) (22, 7.66398544311523437500e+01) (23, -1.11774575710296630859e+00) (24, -4.61193237304687500000e+01) (25, -5.24124765396118164062e+00) (26, -1.03941698074340820312e+01) (27, 1.39184541702270507812e+01) (28, 4.02413787841796875000e+01) (29, 1.18166122436523437500e+01) (30, 8.77999603748321533203e-01) (31, 5.00561332702636718750e+00) (32, 6.16279542446136474609e-01) (33, -1.46597375869750976562e+01) (34, 5.45353233814239501953e-01) (35, -2.55826830863952636719e+00) (36, 4.25706475973129272461e-01) (37, -3.12368659973144531250e+01) (38, 5.04300773143768310547e-01) (39, 4.34161300659179687500e+01) (40, 4.98353958129882812500e+01) (41, 1.88505592346191406250e+01) (42, 2.65500640869140625000e+01) (43, 5.63341379165649414062e-01) (0, 1.42529223632812500000e+03) (1, -1.45316992187500000000e+03) (2, 1.50000000000000000000e+03) (3, 6.20116424560546875000e+01) (4, -1.50000000000000000000e+03) (5, 1.50000000000000000000e+03) (6, 1.50000000000000000000e+03) (7, 1.31313581466674804688e+01) (8, 1.50000000000000000000e+03) (9, 3.25895118713378906250e+00) (10, 1.43390820312500000000e+03) (11, 1.50000000000000000000e+03) (12, 1.50000000000000000000e+03) (13, 1.50000000000000000000e+03) (14, -1.15502965450286865234e+00) (15, 3.40811699628829956055e-01) (16, 2.84700959920883178711e-01) (17, -1.67444656372070312500e+02) (18, -8.85286331176757812500e+01) (19, 1.26433825492858886719e+00) (20, 9.84052598476409912109e-01) (21, 2.05613183975219726562e+00) (22, 1.39806762695312500000e+02) (23, 6.68235242366790771484e-01) (24, -7.30431604385375976562e+00) (25, 5.04221153259277343750e+00) (26, 1.09236465454101562500e+02) (27, 1.52283263206481933594e+00) (28, 1.27450394630432128906e+00) (29, -3.96004033088684082031e+00) (30, 7.18269586563110351562e-01) (31, 1.98394858837127685547e+00) (32, 5.94446659088134765625e-01) (33, 8.69600355625152587891e-01) (34, 4.84564065933227539062e-01) (35, 8.07078301906585693359e-01) (36, 4.67559039592742919922e-01) (37, 1.37290465831756591797e+00) (38, 5.34255802631378173828e-01) (39, 1.23059997558593750000e+01) (40, -9.61656570434570312500e+01) (41, -3.13943529129028320312e+00) (42, 1.46869934082031250000e+02) (43, 1.54670059680938720703e+00) (0, -3.11319303512573242188e+00) (1, 9.80213165283203125000e+00) (2, 1.50000000000000000000e+03) (3, 3.47543525695800781250e+01) (4, -4.29059181213378906250e+01) (5, 1.50000000000000000000e+03) (6, 1.50000000000000000000e+03) (7, -5.04209184646606445312e+00) (8, 1.50000000000000000000e+03) (9, 7.59756982326507568359e-01) (10, 4.79263544082641601562e+00) (11, 1.50000000000000000000e+03) (12, 1.50000000000000000000e+03) (13, 1.50000000000000000000e+03) (14, -5.22393643856048583984e-01) (15, 2.55460530519485473633e-01) (16, -1.96275830268859863281e-01) (17, -1.64615783691406250000e+01) (18, -1.42423614501953125000e+02) (19, 1.43993830680847167969e+00) (20, -1.96746814250946044922e+00) (21, 8.79016208648681640625e+00) (22, -2.95166168212890625000e+02) (23, -9.02533978223800659180e-02) (24, 1.04891386032104492188e+01) (25, -1.37576353549957275391e+00) (26, 5.62386989593505859375e+00) (27, 2.41755962371826171875e+00) (28, 1.00733055114746093750e+02) (29, 1.77527809143066406250e+00) (30, 2.02261328697204589844e-01) (31, -2.50802874565124511719e+00) (32, 5.07029056549072265625e-01) (33, 4.73172456026077270508e-01) (34, 5.40876746177673339844e-01) (35, 1.27585554122924804688e+00) (36, 3.08361023664474487305e-01) (37, 1.43462634086608886719e+00) (38, 4.67452675104141235352e-01) (39, -1.92252600193023681641e+00) (40, -4.91049385070800781250e+01) (41, -2.62103629112243652344e+00) (42, -7.19364547729492187500e+01) (43, 6.80926501750946044922e-01) (0, 1.05900344848632812500e+02) (1, -9.01293334960937500000e+01) (2, 1.50000000000000000000e+03) (3, -6.25615310668945312500e+01) (4, -2.38916778564453125000e+01) (5, 1.50000000000000000000e+03) (6, 1.50000000000000000000e+03) (7, 6.24733734130859375000e+01) (8, 1.50000000000000000000e+03) (9, 4.09017944335937500000e+01) (10, 8.25404357910156250000e+00) (11, 1.50000000000000000000e+03) (12, 1.50000000000000000000e+03) (13, 1.50000000000000000000e+03) (14, -3.53126068115234375000e+01) (15, 2.50534591674804687500e+01) (16, -2.62943630218505859375e+01) (17, 2.48994781494140625000e+02) (18, -3.36638031005859375000e+01) (19, 2.08004164695739746094e+00) (20, 4.15555572509765625000e+01) (21, -1.62960720062255859375e+01) (22, 3.35772972106933593750e+01) (23, 4.24698829650878906250e+01) (24, -9.16607208251953125000e+01) (25, -1.26484620571136474609e+00) (26, 1.80483388900756835938e+00) (27, 5.68230895996093750000e+01) (28, -1.37367706298828125000e+01) (29, -2.46209316253662109375e+01) (30, 3.17006915807723999023e-01) (31, 3.44469690322875976562e+00) (32, 7.23441541194915771484e-01) (33, 1.14903414249420166016e+00) (34, 7.78126776218414306641e-01) (35, 1.18200671672821044922e+00) (36, 7.75706470012664794922e-01) (37, 4.22033023834228515625e+00) (38, 9.08313989639282226562e-01) (39, -8.73784255981445312500e+00) (40, 9.69479751586914062500e+01) (41, -7.03473031520843505859e-01) (42, 3.83320388793945312500e+01) (43, 8.68873178958892822266e-01) (0, 6.07806110382080078125e+00) (1, -3.63962268829345703125e+00) (2, 1.50000000000000000000e+03) (3, 3.75889420509338378906e+00) (4, 5.01141452789306640625e+00) (5, 1.50000000000000000000e+03) (6, 1.50000000000000000000e+03) (7, -3.27397036552429199219e+00) (8, 1.50000000000000000000e+03) (9, 6.35813093185424804688e+00) (10, -3.88276934623718261719e+00) (11, 1.50000000000000000000e+03) (12, 1.50000000000000000000e+03) (13, 1.50000000000000000000e+03) (14, -3.88675308227539062500e+00) (15, -4.18582582473754882812e+00) (16, -1.06389033794403076172e+00) (17, 3.92104568481445312500e+01) (18, 1.04074211120605468750e+01) (19, 1.40809869766235351562e+00) (20, -2.88876032829284667969e+00) (21, -4.35526323318481445312e+00) (22, -1.63817441463470458984e+00) (23, -1.83356404304504394531e+00) (24, -3.01426768302917480469e+00) (25, 3.66881906986236572266e-01) (26, -5.37708950042724609375e+00) (27, -7.14689874649047851562e+00) (28, -1.56360119581222534180e-01) (29, -3.91787576675415039062e+00) (30, 8.57138693332672119141e-01) (31, 1.26300954818725585938e+00) (32, 5.10581552982330322266e-01) (33, 1.01369488239288330078e+00) (34, 2.14767202734947204590e-01) (35, 7.02748179435729980469e-01) (36, 4.22744661569595336914e-01) (37, 1.18645918369293212891e+00) (38, 9.13978040218353271484e-01) (39, -7.86499118804931640625e+00) (40, -9.74304008483886718750e+00) (41, -1.60341417789459228516e+00) (42, 8.60892295837402343750e+00) (43, 1.91104859113693237305e-01) (0, -7.70933437347412109375e+00) (1, -2.20681037902832031250e+01) (2, 1.50000000000000000000e+03) (3, -2.86520271301269531250e+01) (4, -2.18432979583740234375e+01) (5, 1.50000000000000000000e+03) (6, 1.50000000000000000000e+03) (7, -4.01215505599975585938e+00) (8, 1.50000000000000000000e+03) (9, -9.05958080291748046875e+00) (10, -6.71710371971130371094e-02) (11, 1.50000000000000000000e+03) (12, 1.50000000000000000000e+03) (13, 1.50000000000000000000e+03) (14, 6.35453939437866210938e-01) (15, 1.82919704914093017578e+00) (16, -3.16072702407836914062e-01) (17, -1.33407546997070312500e+02) (18, 3.93876037597656250000e+01) (19, 1.79612553119659423828e+00) (20, 1.22611498832702636719e+00) (21, 3.54705953598022460938e+00) (22, 4.52740478515625000000e+01) (23, -1.36965370178222656250e+00) (24, 7.00639152526855468750e+00) (25, 1.48645386099815368652e-01) (26, 6.06482124328613281250e+00) (27, 2.19854869842529296875e+01) (28, -9.74041843414306640625e+00) (29, -1.50000000000000000000e+03) (30, 2.40110665559768676758e-01) (31, -6.12725305557250976562e+00) (32, 3.62126141786575317383e-01) (33, 1.30716896057128906250e+00) (34, 5.46659171581268310547e-01) (35, 8.36957454681396484375e-01) (36, 7.02152729034423828125e-01) (37, 5.02867126464843750000e+00) (38, 8.89847517013549804688e-01) (39, 7.43031382560729980469e-01) (40, -1.17482519531250000000e+03) (41, -1.01428346633911132812e+01) (42, -6.83639860153198242188e+00) (43, 1.29744112491607666016e-01) (0, 7.30810594558715820312e+00) (1, 1.21560227870941162109e+00) (2, 1.50000000000000000000e+03) (3, -1.72948722839355468750e+01) (4, -1.50000000000000000000e+03) (5, 1.50000000000000000000e+03) (6, 1.50000000000000000000e+03) (7, -2.68016076087951660156e+00) (8, 1.50000000000000000000e+03) (9, -1.49972009658813476562e+01) (10, -1.05789802551269531250e+02) (11, 1.50000000000000000000e+03) (12, 1.50000000000000000000e+03) (13, 1.50000000000000000000e+03) (14, -4.22680473327636718750e+00) (15, 5.02522754669189453125e+00) (16, 8.71776866912841796875e+00) (17, 1.62018337249755859375e+01) (18, -2.19492745399475097656e+00) (19, 1.14010131359100341797e+00) (20, 1.57902628183364868164e-01) (21, 6.42155504226684570312e+00) (22, 2.15663108825683593750e+01) (23, -4.28682327270507812500e+00) (24, -9.69048976898193359375e+00) (25, 1.74883306026458740234e-01) (26, -1.53747234344482421875e+01) (27, -2.12112694978713989258e-01) (28, -1.50623903274536132812e+01) (29, 3.53097033500671386719e+00) (30, 5.74914872646331787109e-01) (31, -4.63000535964965820312e+00) (32, 6.35515928268432617188e-01) (33, 2.37626075744628906250e+00) (34, 7.77264773845672607422e-01) (35, -7.00936746597290039062e+00) (36, 4.40169841051101684570e-01) (37, 9.76124823093414306641e-01) (38, 8.28105568885803222656e-01) (39, 6.52064502239227294922e-01) (40, 4.25082874298095703125e+00) (41, -2.55112781524658203125e+01) (42, 1.07938747406005859375e+01) (43, 2.92374670505523681641e-01) (0, -2.76314067840576171875e+01) (1, -4.23409347534179687500e+01) (2, 1.50000000000000000000e+03) (3, 6.69549865722656250000e+01) (4, -9.97483968734741210938e-01) (5, 1.50000000000000000000e+03) (6, 1.50000000000000000000e+03) (7, 1.04103815555572509766e+00) (8, 1.50000000000000000000e+03) (9, 5.30886764526367187500e+01) (10, 1.49101110839843750000e+03) (11, 1.50000000000000000000e+03) (12, 1.50000000000000000000e+03) (13, 1.50000000000000000000e+03) (14, -5.25905266404151916504e-02) (15, -1.94475650787353515625e+01) (16, -3.68392257690429687500e+01) (17, -2.00494518280029296875e+01) (18, 4.15887031555175781250e+01) (19, 2.02518081665039062500e+00) (20, 5.53331794738769531250e+01) (21, -2.56168079376220703125e+01) (22, 9.35426354408264160156e-01) (23, 1.09784515380859375000e+02) (24, -1.65191936492919921875e+01) (25, -8.05426311492919921875e+00) (26, -7.36339378356933593750e+00) (27, 7.62510223388671875000e+01) (28, 1.17784833908081054688e+01) (29, 4.28952293395996093750e+01) (30, 7.46154069900512695312e-01) (31, -5.46661281585693359375e+00) (32, 2.45136767625808715820e-01) (33, 2.61058311462402343750e+01) (34, 5.82993566989898681641e-01) (35, 5.86454689502716064453e-01) (36, 8.41946423053741455078e-01) (37, -8.99458503723144531250e+00) (38, 5.15426456928253173828e-01) (39, 6.79533081054687500000e+01) (40, -8.26411819458007812500e+01) (41, -1.20269574224948883057e-01) (42, -2.52772212028503417969e-01) (43, 7.57420837879180908203e-01) (44, 2.52721858024597167969e+00) (45, 1.73017549514770507812e+00) (46, 2.67795300483703613281e+00) (47, 2.43663787841796875000e+00) (48, 3.60816788673400878906e+00) (49, 6.24302577972412109375e+00) (50, 4.41487789154052734375e+00) (51, 1.37351179122924804688e+00) (52, 1.22111630439758300781e+00) (53, 2.06213021278381347656e+00) (54, 4.36171483993530273438e+00) (55, 1.92969572544097900391e+00) (56, 4.28893899917602539062e+00) (57, 2.51594519615173339844e+00) (58, 3.05593585968017578125e+00) (59, 3.49163794517517089844e+00) (60, 1.23868131637573242188e+00) (61, 5.59999561309814453125e+00) (62, 4.53229522705078125000e+00) (63, 4.95184135437011718750e+00) (64, 2.76093626022338867188e+00) (65, 4.83926206827163696289e-01) 
