FANN_FLO_2.1
num_layers=3
learning_rate=0.070000
connection_rate=1.000000
network_type=0
learning_momentum=0.000000
training_algorithm=2
train_error_function=1
train_stop_function=0
cascade_output_change_fraction=0.010000
quickprop_decay=-0.000100
quickprop_mu=1.750000
rprop_increase_factor=1.200000
rprop_decrease_factor=0.500000
rprop_delta_min=0.000000
rprop_delta_max=50.000000
rprop_delta_zero=0.100000
cascade_output_stagnation_epochs=12
cascade_candidate_change_fraction=0.010000
cascade_candidate_stagnation_epochs=12
cascade_max_out_epochs=150
cascade_min_out_epochs=50
cascade_max_cand_epochs=150
cascade_min_cand_epochs=50
cascade_num_candidate_groups=2
bit_fail_limit=3.49999994039535522461e-01
cascade_candidate_limit=1.00000000000000000000e+03
cascade_weight_multiplier=4.00000005960464477539e-01
cascade_activation_functions_count=10
cascade_activation_functions=3 5 7 8 10 11 14 15 16 17 
cascade_activation_steepnesses_count=4
cascade_activation_steepnesses=2.50000000000000000000e-01 5.00000000000000000000e-01 7.50000000000000000000e-01 1.00000000000000000000e+00 
layer_sizes=22 22 6 
scale_included=0
neurons (num_inputs, activation_function, activation_steepness)=(0, 0, 0.00000000000000000000e+00) (0, 0, 0.00000000000000000000e+00) (0, 0, 0.00000000000000000000e+00) (0, 0, 0.00000000000000000000e+00) (0, 0, 0.00000000000000000000e+00) (0, 0, 0.00000000000000000000e+00) (0, 0, 0.00000000000000000000e+00) (0, 0, 0.00000000000000000000e+00) (0, 0, 0.00000000000000000000e+00) (0, 0, 0.00000000000000000000e+00) (0, 0, 0.00000000000000000000e+00) (0, 0, 0.00000000000000000000e+00) (0, 0, 0.00000000000000000000e+00) (0, 0, 0.00000000000000000000e+00) (0, 0, 0.00000000000000000000e+00) (0, 0, 0.00000000000000000000e+00) (0, 0, 0.00000000000000000000e+00) (0, 0, 0.00000000000000000000e+00) (0, 0, 0.00000000000000000000e+00) (0, 0, 0.00000000000000000000e+00) (0, 0, 0.00000000000000000000e+00) (0, 0, 0.00000000000000000000e+00) (22, 6, 1.00000001490116119385e-01) (22, 6, 1.00000001490116119385e-01) (22, 6, 1.00000001490116119385e-01) (22, 6, 1.00000001490116119385e-01) (22, 6, 1.00000001490116119385e-01) (22, 6, 1.00000001490116119385e-01) (22, 6, 1.00000001490116119385e-01) (22, 6, 1.00000001490116119385e-01) (22, 6, 1.00000001490116119385e-01) (22, 6, 1.00000001490116119385e-01) (22, 6, 1.00000001490116119385e-01) (22, 6, 1.00000001490116119385e-01) (22, 6, 1.00000001490116119385e-01) (22, 6, 1.00000001490116119385e-01) (22, 6, 1.00000001490116119385e-01) (22, 6, 1.00000001490116119385e-01) (22, 6, 1.00000001490116119385e-01) (22, 6, 1.00000001490116119385e-01) (22, 6, 1.00000001490116119385e-01) (22, 6, 1.00000001490116119385e-01) (22, 6, 1.00000001490116119385e-01) (0, 6, 1.00000001490116119385e-01) (22, 6, 1.00000001490116119385e-01) (22, 6, 1.00000001490116119385e-01) (22, 6, 1.00000001490116119385e-01) (22, 6, 1.00000001490116119385e-01) (22, 6, 1.00000001490116119385e-01) (0, 6, 1.00000001490116119385e-01) 
connections (connected_to_neuron, weight)=(0, 3.93399029970169067383e-01) (1, 6.28907632827758789062e+00) (2, 1.50000000000000000000e+03) (3, 1.50000000000000000000e+03) (4, 1.50000000000000000000e+03) (5, 1.63304364681243896484e+00) (6, 6.79301738739013671875e-01) (7, 5.43273448944091796875e-01) (8, 2.30363756418228149414e-01) (9, 1.50000000000000000000e+03) (10, 1.50000000000000000000e+03) (11, 4.67679321765899658203e-01) (12, 1.90821528434753417969e-01) (13, -3.76582771539688110352e-01) (14, 6.48955106735229492188e-02) (15, 2.65386044979095458984e-01) (16, -8.64223361015319824219e-01) (17, -1.03562784194946289062e+00) (18, 3.04957896471023559570e-01) (19, 4.21663141250610351562e+00) (20, -1.09268462657928466797e+00) (21, -9.19086158275604248047e-01) (0, 8.31069469451904296875e-01) (1, 1.19262444972991943359e+00) (2, 1.50000000000000000000e+03) (3, 1.50000000000000000000e+03) (4, 1.50000000000000000000e+03) (5, -4.43598121404647827148e-01) (6, -6.28901571035385131836e-02) (7, 6.93320388793945312500e+01) (8, 6.82796537876129150391e-01) (9, 1.50000000000000000000e+03) (10, 1.50000000000000000000e+03) (11, 1.14465475082397460938e+00) (12, 3.11592221260070800781e-01) (13, -2.47813895344734191895e-01) (14, 5.85822641849517822266e-01) (15, 3.48073530197143554688e+00) (16, -6.56108371913433074951e-03) (17, -7.60358715057373046875e+00) (18, 1.70739918947219848633e-01) (19, -1.34534025192260742188e+01) (20, 1.45719498395919799805e-01) (21, -1.33225274085998535156e+00) (0, 1.12537495791912078857e-01) (1, -1.47882774472236633301e-01) (2, 1.50000000000000000000e+03) (3, 1.50000000000000000000e+03) (4, 1.50000000000000000000e+03) (5, -1.42062783241271972656e+00) (6, 9.02675092220306396484e-01) (7, -6.87516555786132812500e+01) (8, 9.44311618804931640625e-01) (9, 1.50000000000000000000e+03) (10, 1.50000000000000000000e+03) (11, 2.32793688774108886719e+00) (12, 1.81126511096954345703e+00) (13, 1.02526867389678955078e+00) (14, -2.80320549011230468750e+00) (15, -5.67223548889160156250e+01) (16, 6.83530282974243164062e+00) (17, 3.35051002502441406250e+01) (18, 7.01522171497344970703e-01) (19, 1.30810368061065673828e+00) (20, 1.72490108013153076172e+00) (21, 8.96285533905029296875e-01) (0, 1.21162664890289306641e+00) (1, -2.60280251502990722656e+00) (2, 1.50000000000000000000e+03) (3, 1.50000000000000000000e+03) (4, 1.50000000000000000000e+03) (5, -4.67239999771118164062e+00) (6, 2.54632383584976196289e-01) (7, -6.86202087402343750000e+01) (8, 2.79438108205795288086e-01) (9, 1.50000000000000000000e+03) (10, 1.50000000000000000000e+03) (11, 5.30982732772827148438e-01) (12, 1.26702260971069335938e+00) (13, 1.16340875625610351562e+00) (14, 4.22368019819259643555e-01) (15, -7.29605197906494140625e+00) (16, 1.24072325229644775391e+00) (17, 4.80698585510253906250e+00) (18, -7.15433025360107421875e+00) (19, -1.91476476192474365234e+00) (20, 9.90536212921142578125e-01) (21, 2.60350018739700317383e-01) (0, -1.16605997085571289062e+00) (1, 1.33015644550323486328e+00) (2, 1.50000000000000000000e+03) (3, 1.50000000000000000000e+03) (4, 1.50000000000000000000e+03) (5, 6.92865014076232910156e-01) (6, 4.79709029197692871094e-01) (7, 1.59264183044433593750e+00) (8, -6.76361680030822753906e-01) (9, 1.50000000000000000000e+03) (10, 1.50000000000000000000e+03) (11, 1.28867363929748535156e+00) (12, 1.09142041206359863281e+00) (13, 4.68330532312393188477e-01) (14, 1.34246325492858886719e+00) (15, 3.99124085903167724609e-01) (16, 9.41199064254760742188e-01) (17, 4.91039047241210937500e+01) (18, 6.51454865932464599609e-01) (19, 1.65006458759307861328e+00) (20, 6.74717187881469726562e-01) (21, 2.34680622816085815430e-01) (0, 1.60946369171142578125e-01) (1, 4.34349656105041503906e-01) (2, 1.50000000000000000000e+03) (3, 1.50000000000000000000e+03) (4, 1.50000000000000000000e+03) (5, -3.07935357093811035156e+00) (6, 1.36068999767303466797e+00) (7, -1.12311182022094726562e+01) (8, 1.28371715545654296875e+00) (9, 1.50000000000000000000e+03) (10, 1.50000000000000000000e+03) (11, 5.25157749652862548828e-01) (12, 6.15400493144989013672e-01) (13, 3.17834585905075073242e-01) (14, 6.27914130687713623047e-01) (15, -1.10841903686523437500e+01) (16, 1.24916589260101318359e+00) (17, -2.11972446441650390625e+01) (18, 1.13174641132354736328e+00) (19, 1.18648967742919921875e+01) (20, 2.61822700500488281250e+00) (21, -1.96722522377967834473e-01) (0, 9.85685944557189941406e-01) (1, 1.62687993049621582031e+00) (2, 1.50000000000000000000e+03) (3, 1.50000000000000000000e+03) (4, 1.50000000000000000000e+03) (5, -4.45467233657836914062e+00) (6, 2.53020739555358886719e+00) (7, 1.53887672424316406250e+01) (8, 1.24890601634979248047e+00) (9, 1.50000000000000000000e+03) (10, 1.50000000000000000000e+03) (11, 1.71201920509338378906e+00) (12, 1.58445334434509277344e+00) (13, 2.91082262992858886719e+00) (14, -6.62378072738647460938e-02) (15, 1.35539665222167968750e+01) (16, 6.45925140380859375000e+00) (17, -1.86935539245605468750e+01) (18, 1.16027081012725830078e+00) (19, -2.08478617668151855469e+00) (20, -4.96582925319671630859e-01) (21, 1.57655990123748779297e+00) (0, -7.70556688308715820312e-01) (1, -9.93043212890625000000e+02) (2, 1.50000000000000000000e+03) (3, 1.50000000000000000000e+03) (4, 1.50000000000000000000e+03) (5, -5.77042055130004882812e+00) (6, 1.22517251968383789062e+00) (7, 4.88056373596191406250e+00) (8, 9.82124984264373779297e-01) (9, 1.50000000000000000000e+03) (10, 1.50000000000000000000e+03) (11, 1.47807300090789794922e+00) (12, 1.17150604724884033203e+00) (13, 1.44550037384033203125e+00) (14, 1.54854130744934082031e+00) (15, -2.85994315147399902344e+00) (16, 1.15036904811859130859e+00) (17, 7.92977511882781982422e-01) (18, 2.15623593330383300781e+00) (19, 8.07493254542350769043e-02) (20, 1.55847692489624023438e+00) (21, 8.09577852487564086914e-02) (0, 1.84432148933410644531e+00) (1, -1.49088513183593750000e+03) (2, 1.50000000000000000000e+03) (3, 1.50000000000000000000e+03) (4, 1.50000000000000000000e+03) (5, 3.29394054412841796875e+00) (6, -3.73863756656646728516e-01) (7, -2.98907828330993652344e+00) (8, -5.27765393257141113281e-01) (9, 1.50000000000000000000e+03) (10, 1.50000000000000000000e+03) (11, 1.75617322325706481934e-01) (12, 4.83571827411651611328e-01) (13, 2.63256490230560302734e-01) (14, -4.08614650368690490723e-02) (15, 5.35780072212219238281e-01) (16, 5.53231179714202880859e-01) (17, -8.01311016082763671875e+00) (18, 5.75224876403808593750e-01) (19, 1.24056959152221679688e+00) (20, -5.62606751918792724609e-01) (21, -1.38285243511199951172e+00) (0, 8.02751421928405761719e-01) (1, -1.98647689819335937500e+01) (2, 1.50000000000000000000e+03) (3, 1.50000000000000000000e+03) (4, 1.50000000000000000000e+03) (5, -2.41997063159942626953e-01) (6, -4.72867965698242187500e+00) (7, -5.13630447387695312500e+01) (8, 8.69421064853668212891e-01) (9, 1.50000000000000000000e+03) (10, 1.50000000000000000000e+03) (11, 3.85485196113586425781e+00) (12, 8.26484680175781250000e+00) (13, 2.53117895126342773438e+00) (14, 6.57568275928497314453e-01) (15, -1.85907478332519531250e+01) (16, 3.03492975234985351562e+00) (17, 2.30846920013427734375e+01) (18, -5.39216089248657226562e+00) (19, 3.80456835031509399414e-01) (20, 2.68917798995971679688e+00) (21, 1.04480934143066406250e+00) (0, 2.48252034187316894531e+00) (1, 2.52344918251037597656e+00) (2, 1.50000000000000000000e+03) (3, 1.50000000000000000000e+03) (4, 1.50000000000000000000e+03) (5, 3.74631428718566894531e+00) (6, -1.23558635711669921875e+01) (7, 2.34135074615478515625e+01) (8, -6.75901770591735839844e-01) (9, 1.50000000000000000000e+03) (10, 1.50000000000000000000e+03) (11, 7.99368083477020263672e-01) (12, -5.93429319560527801514e-02) (13, 3.54262650012969970703e-01) (14, 7.39001095294952392578e-01) (15, -3.41949677467346191406e+00) (16, -4.67585802078247070312e-01) (17, 7.27143859863281250000e+00) (18, -5.54160855244845151901e-04) (19, 5.19498661160469055176e-02) (20, 3.01361739635467529297e-01) (21, -1.20840466022491455078e+00) (0, -6.20817852020263671875e+00) (1, -3.85871624946594238281e+00) (2, 1.50000000000000000000e+03) (3, 1.50000000000000000000e+03) (4, 1.50000000000000000000e+03) (5, -5.96177721023559570312e+00) (6, -2.74256682395935058594e+00) (7, 2.25825210571289062500e+02) (8, 2.35199046134948730469e+00) (9, 1.50000000000000000000e+03) (10, 1.50000000000000000000e+03) (11, 3.14168620109558105469e+00) (12, 7.88297557830810546875e+00) (13, 2.31492424011230468750e+00) (14, 1.93727076053619384766e+00) (15, 9.04999465942382812500e+01) (16, 9.23229885101318359375e+00) (17, -2.33431488037109375000e+02) (18, 2.00207734107971191406e+00) (19, 6.93178892135620117188e+00) (20, -7.80619668960571289062e+00) (21, 5.61783218383789062500e+00) (0, -3.32775205373764038086e-01) (1, 1.40560960769653320312e+00) (2, 1.50000000000000000000e+03) (3, 1.50000000000000000000e+03) (4, 1.50000000000000000000e+03) (5, -5.97134399414062500000e+02) (6, 1.12578630447387695312e+01) (7, 3.13151626586914062500e+01) (8, 4.06654834747314453125e-01) (9, 1.50000000000000000000e+03) (10, 1.50000000000000000000e+03) (11, 2.43439942598342895508e-01) (12, 4.84530359506607055664e-01) (13, 8.78918230533599853516e-01) (14, -2.20697832107543945312e+00) (15, 6.85188770294189453125e-02) (16, 1.32838749885559082031e+00) (17, 4.20276832580566406250e+00) (18, 7.35547959804534912109e-01) (19, 1.14975185394287109375e+01) (20, 1.30075144767761230469e+00) (21, 1.38335805386304855347e-02) (0, -5.00420108437538146973e-02) (1, 2.40157499909400939941e-01) (2, 1.50000000000000000000e+03) (3, 1.50000000000000000000e+03) (4, 1.50000000000000000000e+03) (5, 3.39738416671752929688e+00) (6, 3.03768944740295410156e+00) (7, -5.91043174266815185547e-01) (8, 4.44064229726791381836e-01) (9, 1.50000000000000000000e+03) (10, 1.50000000000000000000e+03) (11, -5.77517300844192504883e-02) (12, 2.59254753589630126953e-01) (13, -5.70231616497039794922e-01) (14, -1.77129670977592468262e-01) (15, 2.47937607765197753906e+00) (16, -1.88128840923309326172e+00) (17, -5.90518150329589843750e+01) (18, 7.02908849716186523438e+00) (19, 3.21930999755859375000e+01) (20, -1.53727221488952636719e+00) (21, -8.49694371223449707031e-01) (0, 4.49218571186065673828e-01) (1, -1.17893981933593750000e+01) (2, 1.50000000000000000000e+03) (3, 1.50000000000000000000e+03) (4, 1.50000000000000000000e+03) (5, 1.22098665237426757812e+01) (6, 1.60159754753112792969e+00) (7, -5.80769805908203125000e+01) (8, -7.60881781578063964844e-01) (9, 1.50000000000000000000e+03) (10, 1.50000000000000000000e+03) (11, -2.45444640517234802246e-01) (12, -4.22311156988143920898e-01) (13, -6.51162028312683105469e-01) (14, 3.12031656503677368164e-01) (15, 3.50568122863769531250e+01) (16, -9.43542897701263427734e-01) (17, -3.88445098876953125000e+02) (18, 5.50245571136474609375e+00) (19, 2.03267623901367187500e+02) (20, -3.44034051895141601562e+00) (21, -3.88835817575454711914e-02) (0, -1.04363039135932922363e-01) (1, 5.74121296405792236328e-01) (2, 1.50000000000000000000e+03) (3, 1.50000000000000000000e+03) (4, 1.50000000000000000000e+03) (5, 3.64240646362304687500e-01) (6, -2.98101139068603515625e+00) (7, 2.43688249588012695312e+00) (8, -3.92634481191635131836e-01) (9, 1.50000000000000000000e+03) (10, 1.50000000000000000000e+03) (11, -3.17256957292556762695e-01) (12, 3.25973063707351684570e-01) (13, -5.46147376298904418945e-02) (14, -8.33378732204437255859e-02) (15, -3.57081127166748046875e+00) (16, -3.63781332969665527344e-01) (17, -2.67515093088150024414e-01) (18, -2.95609307289123535156e+00) (19, 1.13795013427734375000e+01) (20, -3.01055401563644409180e-01) (21, -9.41418647766113281250e-01) (0, 5.01075506210327148438e+00) (1, -1.35438317871093750000e+03) (2, 1.50000000000000000000e+03) (3, 1.50000000000000000000e+03) (4, 1.50000000000000000000e+03) (5, 1.33576707839965820312e+01) (6, 2.94527530670166015625e+01) (7, 7.56415176391601562500e+00) (8, 8.18592011928558349609e-01) (9, 1.50000000000000000000e+03) (10, 1.50000000000000000000e+03) (11, 5.01528978347778320312e-01) (12, 3.20723235607147216797e-01) (13, -3.84031593799591064453e-01) (14, 1.86425924301147460938e-01) (15, -2.95022811889648437500e+01) (16, 3.25513815879821777344e+00) (17, -2.36556987762451171875e+01) (18, -3.20024919509887695312e+00) (19, 2.30750217437744140625e+01) (20, 1.08464598655700683594e+00) (21, -8.90511333942413330078e-01) (0, -1.32162165641784667969e+00) (1, -2.26455886840820312500e+02) (2, 1.50000000000000000000e+03) (3, 1.50000000000000000000e+03) (4, 1.50000000000000000000e+03) (5, -1.60562074184417724609e+00) (6, 1.05751395225524902344e+00) (7, 9.51137828826904296875e+00) (8, 1.31289684772491455078e+00) (9, 1.50000000000000000000e+03) (10, 1.50000000000000000000e+03) (11, 9.18839514255523681641e-01) (12, 1.27297639846801757812e+00) (13, 8.70253801345825195312e-01) (14, 8.09522986412048339844e-01) (15, 1.69829821586608886719e+00) (16, 1.83723914623260498047e+00) (17, 6.25947227478027343750e+01) (18, 4.42935317754745483398e-01) (19, -3.65086376667022705078e-01) (20, 9.30769085884094238281e-01) (21, 1.70702373981475830078e+00) (0, -1.44223999977111816406e+00) (1, -3.61646823585033416748e-02) (2, 1.50000000000000000000e+03) (3, 1.50000000000000000000e+03) (4, 1.50000000000000000000e+03) (5, 2.64673709869384765625e-01) (6, 1.09524357318878173828e+00) (7, 2.90894556045532226562e+00) (8, -1.65928018093109130859e+00) (9, 1.50000000000000000000e+03) (10, 1.50000000000000000000e+03) (11, 1.03781521320343017578e+00) (12, 1.35515236854553222656e+00) (13, 4.75957125425338745117e-01) (14, 2.88924217224121093750e-01) (15, 2.45999455451965332031e+00) (16, 1.18958735466003417969e+00) (17, 2.86777740478515625000e+02) (18, 4.10303950309753417969e-01) (19, -2.25588626861572265625e+01) (20, 1.56644499301910400391e+00) (21, 8.79528582096099853516e-01) (0, 9.05588388442993164062e-01) (1, 5.41778898239135742188e+00) (2, 1.50000000000000000000e+03) (3, 1.50000000000000000000e+03) (4, 1.50000000000000000000e+03) (5, 1.97466146945953369141e+00) (6, 7.69391953945159912109e-01) (7, -2.09613498300313949585e-02) (8, -2.03278899192810058594e-01) (9, 1.50000000000000000000e+03) (10, 1.50000000000000000000e+03) (11, 3.23619365692138671875e-01) (12, -4.41298820078372955322e-02) (13, 4.10440444946289062500e-01) (14, 1.78682893514633178711e-01) (15, -6.57075881958007812500e-01) (16, -3.29787321388721466064e-02) (17, 3.13448399305343627930e-01) (18, 4.82655733823776245117e-01) (19, 3.59247779846191406250e+00) (20, 4.14974898099899291992e-01) (21, -1.48937499523162841797e+00) (0, -3.99075716733932495117e-01) (1, -1.02075733244419097900e-01) (2, 1.50000000000000000000e+03) (3, 1.50000000000000000000e+03) (4, 1.50000000000000000000e+03) (5, 5.14571380615234375000e+00) (6, 1.31140649318695068359e+00) (7, 1.75443005561828613281e+00) (8, 9.68875885009765625000e-01) (9, 1.50000000000000000000e+03) (10, 1.50000000000000000000e+03) (11, 7.18289375305175781250e-01) (12, 4.85159903764724731445e-01) (13, 8.82547616958618164062e-01) (14, 1.14796495437622070312e+00) (15, -9.29720497131347656250e+00) (16, 1.62351810932159423828e+00) (17, 1.50000000000000000000e+03) (18, -3.60235238075256347656e+00) (19, -6.59289240837097167969e-01) (20, -1.92816340923309326172e+00) (21, -8.79296243190765380859e-01) (22, -2.94181776046752929688e+00) (23, 3.67933249473571777344e+00) (24, 9.67978775501251220703e-01) (25, 1.20197229087352752686e-01) (26, 1.35110104084014892578e+00) (27, -1.91817140579223632812e+00) (28, -7.26830661296844482422e-01) (29, 3.33275765180587768555e-01) (30, -8.60816669464111328125e+00) (31, 1.09716582298278808594e+00) (32, 2.35112953186035156250e+01) (33, -5.41948938369750976562e+00) (34, 3.80223369598388671875e+00) (35, 8.02495670318603515625e+00) (36, 1.23523874282836914062e+01) (37, 5.93119525909423828125e+00) (38, 4.83344507217407226562e+00) (39, 7.85860061645507812500e-01) (40, 4.17800760269165039062e+00) (41, 7.50547468662261962891e-01) (42, 9.03265380859375000000e+00) (43, 9.85524117946624755859e-01) (22, 3.41751837730407714844e+00) (23, 7.66149938106536865234e-01) (24, 1.11875057220458984375e+00) (25, 3.45462203025817871094e-01) (26, 7.57742583751678466797e-01) (27, 1.70119464397430419922e+00) (28, 1.22248852252960205078e+00) (29, -5.83661937713623046875e+00) (30, -9.12842273712158203125e+00) (31, -2.28528037667274475098e-01) (32, 1.69315767288208007812e+00) (33, 4.64419364929199218750e-01) (34, 7.32438623905181884766e-01) (35, -2.47895494103431701660e-01) (36, 6.92555531859397888184e-02) (37, -3.22154927253723144531e+00) (38, -6.29566490650177001953e-01) (39, -3.09012919664382934570e-01) (40, 1.52834534645080566406e-01) (41, 7.91698694229125976562e+00) (42, -2.71845877170562744141e-01) (43, -1.37108415365219116211e-01) (22, -1.62097942829132080078e+00) (23, -1.18989908695220947266e+00) (24, 2.29692125320434570312e+00) (25, 1.46409473419189453125e+01) (26, 9.41854119300842285156e-01) (27, -1.82295918464660644531e+00) (28, 1.18088312149047851562e+01) (29, -2.42091789841651916504e-01) (30, -1.05211925506591796875e+00) (31, 3.46122622489929199219e+00) (32, -2.26347112655639648438e+00) (33, 1.33530063629150390625e+01) (34, -1.46098881959915161133e-01) (35, -7.48772907257080078125e+00) (36, -7.27069997787475585938e+00) (37, 1.20647974014282226562e+01) (38, 1.63344526290893554688e+00) (39, 2.21175360679626464844e+00) (40, 1.29400146007537841797e+00) (41, -2.15344357490539550781e+00) (42, 2.13541488647460937500e+01) (43, 1.05569207668304443359e+00) (22, 1.28717875480651855469e+00) (23, -3.40429961681365966797e-01) (24, -2.11932301521301269531e-01) (25, -1.96233105659484863281e+00) (26, 3.53419214487075805664e-01) (27, 3.76459813117980957031e+00) (28, 6.57746613025665283203e-01) (29, 7.12424612045288085938e+00) (30, 2.95687079429626464844e+00) (31, -2.30198979377746582031e+00) (32, -8.29597187042236328125e+00) (33, -1.92448747158050537109e+00) (34, -3.96270036697387695312e-01) (35, 5.20314836502075195312e+00) (36, -6.50084912776947021484e-01) (37, -1.22334470748901367188e+01) (38, 4.08510112762451171875e+00) (39, 9.76368367671966552734e-01) (40, 9.02628839015960693359e-01) (41, 1.38530111312866210938e+01) (42, -2.35387248992919921875e+01) (43, -8.25927555561065673828e-01) (22, -3.02899765968322753906e+00) (23, 3.18665599822998046875e+00) (24, -3.07757019996643066406e-01) (25, 1.47783100605010986328e+00) (26, 1.08090412616729736328e+00) (27, 5.44802427291870117188e+00) (28, 1.39894771575927734375e+00) (29, 1.50530886650085449219e+00) (30, -6.36962842941284179688e+00) (31, -8.97109955549240112305e-02) (32, 3.34134745597839355469e+00) (33, -9.37244832515716552734e-01) (34, 1.35991859436035156250e+00) (35, 1.05912399291992187500e+01) (36, 1.75726771354675292969e+00) (37, 2.13470211029052734375e+01) (38, 1.28768098354339599609e+00) (39, 9.43144083023071289062e-01) (40, 3.49345850944519042969e+00) (41, -2.05183482170104980469e+00) (42, 1.64763593673706054688e+00) (43, -8.49859416484832763672e-01) 
