FANN_FLO_2.1
num_layers=3
learning_rate=0.070000
connection_rate=1.000000
network_type=0
learning_momentum=0.000000
training_algorithm=2
train_error_function=1
train_stop_function=0
cascade_output_change_fraction=0.010000
quickprop_decay=-0.000100
quickprop_mu=1.750000
rprop_increase_factor=1.200000
rprop_decrease_factor=0.500000
rprop_delta_min=0.000000
rprop_delta_max=50.000000
rprop_delta_zero=0.100000
cascade_output_stagnation_epochs=12
cascade_candidate_change_fraction=0.010000
cascade_candidate_stagnation_epochs=12
cascade_max_out_epochs=150
cascade_min_out_epochs=50
cascade_max_cand_epochs=150
cascade_min_cand_epochs=50
cascade_num_candidate_groups=2
bit_fail_limit=3.49999994039535522461e-01
cascade_candidate_limit=1.00000000000000000000e+03
cascade_weight_multiplier=4.00000005960464477539e-01
cascade_activation_functions_count=10
cascade_activation_functions=3 5 7 8 10 11 14 15 16 17 
cascade_activation_steepnesses_count=4
cascade_activation_steepnesses=2.50000000000000000000e-01 5.00000000000000000000e-01 7.50000000000000000000e-01 1.00000000000000000000e+00 
layer_sizes=21 21 2 
scale_included=0
neurons (num_inputs, activation_function, activation_steepness)=(0, 0, 0.00000000000000000000e+00) (0, 0, 0.00000000000000000000e+00) (0, 0, 0.00000000000000000000e+00) (0, 0, 0.00000000000000000000e+00) (0, 0, 0.00000000000000000000e+00) (0, 0, 0.00000000000000000000e+00) (0, 0, 0.00000000000000000000e+00) (0, 0, 0.00000000000000000000e+00) (0, 0, 0.00000000000000000000e+00) (0, 0, 0.00000000000000000000e+00) (0, 0, 0.00000000000000000000e+00) (0, 0, 0.00000000000000000000e+00) (0, 0, 0.00000000000000000000e+00) (0, 0, 0.00000000000000000000e+00) (0, 0, 0.00000000000000000000e+00) (0, 0, 0.00000000000000000000e+00) (0, 0, 0.00000000000000000000e+00) (0, 0, 0.00000000000000000000e+00) (0, 0, 0.00000000000000000000e+00) (0, 0, 0.00000000000000000000e+00) (0, 0, 0.00000000000000000000e+00) (21, 6, 1.00000001490116119385e-01) (21, 6, 1.00000001490116119385e-01) (21, 6, 1.00000001490116119385e-01) (21, 6, 1.00000001490116119385e-01) (21, 6, 1.00000001490116119385e-01) (21, 6, 1.00000001490116119385e-01) (21, 6, 1.00000001490116119385e-01) (21, 6, 1.00000001490116119385e-01) (21, 6, 1.00000001490116119385e-01) (21, 6, 1.00000001490116119385e-01) (21, 6, 1.00000001490116119385e-01) (21, 6, 1.00000001490116119385e-01) (21, 6, 1.00000001490116119385e-01) (21, 6, 1.00000001490116119385e-01) (21, 6, 1.00000001490116119385e-01) (21, 6, 1.00000001490116119385e-01) (21, 6, 1.00000001490116119385e-01) (21, 6, 1.00000001490116119385e-01) (21, 6, 1.00000001490116119385e-01) (21, 6, 1.00000001490116119385e-01) (0, 6, 1.00000001490116119385e-01) (21, 6, 1.00000001490116119385e-01) (0, 6, 1.00000001490116119385e-01) 
connections (connected_to_neuron, weight)=(0, 1.29078638553619384766e+00) (1, 1.50000000000000000000e+03) (2, 9.71456468105316162109e-02) (3, 1.50000000000000000000e+03) (4, 1.50000000000000000000e+03) (5, -6.16231679916381835938e+00) (6, -3.67660188674926757812e+00) (7, 3.38960856199264526367e-01) (8, 2.19091272354125976562e+00) (9, 6.94023966789245605469e-01) (10, 1.50000000000000000000e+03) (11, 9.87675368785858154297e-01) (12, 6.48555707931518554688e+00) (13, 8.59624862670898437500e-01) (14, 2.21627235412597656250e+00) (15, 8.51341366767883300781e-01) (16, 2.69439744949340820312e+00) (17, 2.06349396705627441406e+00) (18, -3.89669561386108398438e+00) (19, 3.11188459396362304688e-01) (20, 2.07078909873962402344e+00) (0, 5.29097795486450195312e-01) (1, 1.50000000000000000000e+03) (2, 1.88087373971939086914e-01) (3, 1.50000000000000000000e+03) (4, 1.50000000000000000000e+03) (5, 5.90921603143215179443e-02) (6, 7.82414138317108154297e-01) (7, 1.15455245971679687500e+00) (8, 2.77373886108398437500e+00) (9, 1.25856316089630126953e+00) (10, 1.50000000000000000000e+03) (11, 6.12284123897552490234e-01) (12, 2.13900279998779296875e+00) (13, 3.89604836702346801758e-01) (14, 3.41529893875122070312e+00) (15, 4.56172645092010498047e-01) (16, 2.26196575164794921875e+00) (17, -2.67564225196838378906e+00) (18, -3.35748672485351562500e+00) (19, 4.91220712661743164062e-01) (20, 1.03374004364013671875e+00) (0, -5.52723884582519531250e+00) (1, 1.50000000000000000000e+03) (2, -6.88470065593719482422e-01) (3, 1.50000000000000000000e+03) (4, 1.50000000000000000000e+03) (5, -1.82830085754394531250e+01) (6, 1.40282917022705078125e+01) (7, 2.45229646563529968262e-01) (8, -6.42955636978149414062e+00) (9, 8.04716229438781738281e-01) (10, 1.50000000000000000000e+03) (11, 5.30299842357635498047e-01) (12, -1.74311389923095703125e+01) (13, 1.16525876522064208984e+00) (14, 2.56249690055847167969e+00) (15, 1.25857973098754882812e+00) (16, 1.93009734153747558594e+00) (17, 4.56873840332031250000e+02) (18, 2.03346519470214843750e+01) (19, 2.72727565765380859375e+01) (20, 2.22649860382080078125e+00) (0, -1.77354857325553894043e-01) (1, 1.50000000000000000000e+03) (2, 1.47665232419967651367e-01) (3, 1.50000000000000000000e+03) (4, 1.50000000000000000000e+03) (5, -1.56946003437042236328e-01) (6, 7.48911798000335693359e-02) (7, 1.03008270263671875000e+00) (8, 1.41630923748016357422e+00) (9, 4.78386551141738891602e-01) (10, 1.50000000000000000000e+03) (11, 1.27207934856414794922e+00) (12, 1.40753960609436035156e+00) (13, 1.25856471061706542969e+00) (14, 1.76643073558807373047e+00) (15, 8.35126161575317382812e-01) (16, 2.00668978691101074219e+00) (17, 8.33721280097961425781e-01) (18, -4.93887519836425781250e+00) (19, -1.18462324142456054688e+00) (20, 4.69692587852478027344e-01) (0, 5.30607271194458007812e+00) (1, 1.50000000000000000000e+03) (2, -2.13229298591613769531e-01) (3, 1.50000000000000000000e+03) (4, 1.50000000000000000000e+03) (5, 3.17374438047409057617e-01) (6, 1.17158889770507812500e+01) (7, 2.74362683296203613281e-01) (8, 2.73295378684997558594e+00) (9, 6.05440795421600341797e-01) (10, 1.50000000000000000000e+03) (11, 8.92124950885772705078e-01) (12, 2.64332556724548339844e+00) (13, 6.13069236278533935547e-01) (14, 3.50528502464294433594e+00) (15, 4.57811534404754638672e-01) (16, 2.83818197250366210938e+00) (17, -8.55687046051025390625e+00) (18, -2.82459926605224609375e+00) (19, 1.62192177772521972656e+00) (20, 2.46203446388244628906e+00) (0, 9.43407863378524780273e-02) (1, 1.50000000000000000000e+03) (2, 5.38805603981018066406e-01) (3, 1.50000000000000000000e+03) (4, 1.50000000000000000000e+03) (5, -8.93011927604675292969e-01) (6, -8.27134773135185241699e-02) (7, 1.02597630023956298828e+00) (8, 1.98523724079132080078e+00) (9, 7.89993524551391601562e-01) (10, 1.50000000000000000000e+03) (11, 1.80673733353614807129e-01) (12, 2.04060530662536621094e+00) (13, 7.37697243690490722656e-01) (14, 1.63510358333587646484e+00) (15, 7.36822187900543212891e-01) (16, 1.36166381835937500000e+00) (17, 3.88889253139495849609e-01) (18, -4.28897809982299804688e+00) (19, -4.62523490190505981445e-01) (20, 1.80803883075714111328e+00) (0, 8.03795874118804931641e-01) (1, 1.50000000000000000000e+03) (2, 3.39444309473037719727e-01) (3, 1.50000000000000000000e+03) (4, 1.50000000000000000000e+03) (5, -4.07485246658325195312e+00) (6, 4.08568739891052246094e-01) (7, 9.13435697555541992188e-01) (8, 1.88545393943786621094e+00) (9, 3.89764577150344848633e-01) (10, 1.50000000000000000000e+03) (11, 7.45866477489471435547e-01) (12, 2.29961729049682617188e+00) (13, 1.60276994109153747559e-01) (14, 1.45142507553100585938e+00) (15, 5.52881479263305664062e-01) (16, 1.74735903739929199219e+00) (17, 1.27021145820617675781e+00) (18, -4.42646265029907226562e+00) (19, 6.69439315795898437500e-01) (20, 5.05290508270263671875e-01) (0, -3.37954580783843994141e-01) (1, 1.50000000000000000000e+03) (2, 5.22565484046936035156e-01) (3, 1.50000000000000000000e+03) (4, 1.50000000000000000000e+03) (5, -3.26367998123168945312e+00) (6, 9.94774997234344482422e-01) (7, 5.10408580303192138672e-01) (8, 1.60774266719818115234e+00) (9, 8.83359670639038085938e-01) (10, 1.50000000000000000000e+03) (11, 5.11585056781768798828e-01) (12, 2.17359280586242675781e+00) (13, 1.20043206214904785156e+00) (14, 1.68414163589477539062e+00) (15, 8.07372152805328369141e-01) (16, 1.65278136730194091797e+00) (17, 5.07542848587036132812e-01) (18, -4.25167798995971679688e+00) (19, 6.09661042690277099609e-01) (20, 8.41197133064270019531e-01) (0, -2.30062127113342285156e+00) (1, 1.50000000000000000000e+03) (2, 1.30408751964569091797e+00) (3, 1.50000000000000000000e+03) (4, 1.50000000000000000000e+03) (5, 1.38764696121215820312e+01) (6, -1.35431308746337890625e+01) (7, 1.23420441150665283203e+00) (8, 2.20088076591491699219e+00) (9, 1.05385696887969970703e+00) (10, 1.50000000000000000000e+03) (11, 5.38021683692932128906e-01) (12, -2.50703735351562500000e+01) (13, 6.72100365161895751953e-01) (14, -6.01818609237670898438e+00) (15, 5.60033142566680908203e-01) (16, 2.51084423065185546875e+00) (17, 1.34730017089843750000e+03) (18, -1.59677839279174804688e+01) (19, 4.21670318603515625000e+02) (20, 3.16829991340637207031e+00) (0, -3.33520501852035522461e-01) (1, 1.50000000000000000000e+03) (2, 5.38077056407928466797e-01) (3, 1.50000000000000000000e+03) (4, 1.50000000000000000000e+03) (5, -8.68404448032379150391e-01) (6, 7.93612182140350341797e-01) (7, 8.32463741302490234375e-01) (8, 2.19138741493225097656e+00) (9, 3.36223840713500976562e-01) (10, 1.50000000000000000000e+03) (11, 6.73183083534240722656e-01) (12, 1.81037664413452148438e+00) (13, 2.70491182804107666016e-01) (14, 1.54796457290649414062e+00) (15, 4.68493878841400146484e-01) (16, 1.53209066390991210938e+00) (17, 2.24384486675262451172e-01) (18, -4.84538269042968750000e+00) (19, 6.58179819583892822266e-01) (20, 8.86294066905975341797e-01) (0, -6.01651556789875030518e-02) (1, 1.50000000000000000000e+03) (2, 6.59056723117828369141e-01) (3, 1.50000000000000000000e+03) (4, 1.50000000000000000000e+03) (5, -1.15916192531585693359e+00) (6, 4.72787618637084960938e-01) (7, 3.02429825067520141602e-01) (8, 1.38892006874084472656e+00) (9, 8.23091089725494384766e-01) (10, 1.50000000000000000000e+03) (11, 1.52176409959793090820e-01) (12, 1.79412043094635009766e+00) (13, 1.04632151126861572266e+00) (14, 1.67138206958770751953e+00) (15, 1.03709697723388671875e+00) (16, 1.90294671058654785156e+00) (17, -3.55187878012657165527e-02) (18, -4.00150775909423828125e+00) (19, 8.37300777435302734375e-01) (20, 8.37870001792907714844e-01) (0, -2.95616835355758666992e-01) (1, 1.50000000000000000000e+03) (2, 2.16628000140190124512e-01) (3, 1.50000000000000000000e+03) (4, 1.50000000000000000000e+03) (5, -1.14036607742309570312e+00) (6, 6.70882940292358398438e-01) (7, 8.24298560619354248047e-01) (8, 1.95297563076019287109e+00) (9, 4.31386321783065795898e-01) (10, 1.50000000000000000000e+03) (11, 9.54848051071166992188e-01) (12, 1.33660578727722167969e+00) (13, 1.04434406757354736328e+00) (14, 1.31940591335296630859e+00) (15, 4.56708937883377075195e-01) (16, 1.35353755950927734375e+00) (17, 2.57824063301086425781e-01) (18, -4.28108453750610351562e+00) (19, 6.34902119636535644531e-02) (20, 1.04976987838745117188e+00) (0, 3.77027660608291625977e-01) (1, 1.50000000000000000000e+03) (2, -8.79130288958549499512e-02) (3, 1.50000000000000000000e+03) (4, 1.50000000000000000000e+03) (5, -3.74495601654052734375e+00) (6, 1.29309999942779541016e+00) (7, 1.27761721611022949219e+00) (8, 2.59537768363952636719e+00) (9, 4.04859572649002075195e-01) (10, 1.50000000000000000000e+03) (11, 1.19841039180755615234e+00) (12, 2.66268444061279296875e+00) (13, 9.37394559383392333984e-01) (14, 3.67381906509399414062e+00) (15, 1.10550260543823242188e+00) (16, 1.95226037502288818359e+00) (17, -2.46529984474182128906e+00) (18, -2.07708668708801269531e+00) (19, 1.93053376674652099609e+00) (20, 8.96980345249176025391e-01) (0, -1.86385706067085266113e-01) (1, 1.50000000000000000000e+03) (2, 6.92169666290283203125e-01) (3, 1.50000000000000000000e+03) (4, 1.50000000000000000000e+03) (5, -9.97607827186584472656e-01) (6, 4.01514977216720581055e-01) (7, 8.63550245761871337891e-01) (8, 1.55321955680847167969e+00) (9, 1.95879176259040832520e-01) (10, 1.50000000000000000000e+03) (11, 1.08599233627319335938e+00) (12, 1.55610251426696777344e+00) (13, 1.21846103668212890625e+00) (14, 1.38443326950073242188e+00) (15, 2.93244928121566772461e-01) (16, 2.15062737464904785156e+00) (17, 1.24670743942260742188e-01) (18, -3.93101596832275390625e+00) (19, 1.00743129849433898926e-01) (20, 7.32650578022003173828e-01) (0, 3.58180940151214599609e-01) (1, 1.50000000000000000000e+03) (2, 8.31591784954071044922e-01) (3, 1.50000000000000000000e+03) (4, 1.50000000000000000000e+03) (5, -7.27661371231079101562e-01) (6, 1.22551389038562774658e-01) (7, 2.72435188293457031250e-01) (8, 2.30503034591674804688e+00) (9, 5.77911615371704101562e-01) (10, 1.50000000000000000000e+03) (11, 4.85161870718002319336e-01) (12, 1.58814561367034912109e+00) (13, 9.42942380905151367188e-01) (14, 1.78384983539581298828e+00) (15, 7.48376011848449707031e-01) (16, 1.65043461322784423828e+00) (17, 6.79921358823776245117e-02) (18, -3.82382416725158691406e+00) (19, 3.46792429685592651367e-01) (20, 5.21320343017578125000e-01) (0, -1.64002671837806701660e-01) (1, 1.50000000000000000000e+03) (2, -9.78319048881530761719e-02) (3, 1.50000000000000000000e+03) (4, 1.50000000000000000000e+03) (5, -5.19432604312896728516e-01) (6, 7.50205516815185546875e-02) (7, 7.19444453716278076172e-01) (8, 3.96800446510314941406e+00) (9, 4.13937807083129882812e-01) (10, 1.50000000000000000000e+03) (11, 1.00706493854522705078e+00) (12, 2.16854906082153320312e+00) (13, 5.89767575263977050781e-01) (14, 1.71898591518402099609e+00) (15, 1.04210305213928222656e+00) (16, 2.00578665733337402344e+00) (17, -8.11891376972198486328e-01) (18, -3.74065327644348144531e+00) (19, -1.01320922374725341797e+00) (20, 1.86886477470397949219e+00) (0, 1.30774989724159240723e-01) (1, 1.50000000000000000000e+03) (2, 7.03584671020507812500e-01) (3, 1.50000000000000000000e+03) (4, 1.50000000000000000000e+03) (5, -7.04010784626007080078e-01) (6, -7.10208192467689514160e-02) (7, 9.37720239162445068359e-01) (8, 1.37646770477294921875e+00) (9, 4.52920317649841308594e-01) (10, 1.50000000000000000000e+03) (11, 1.02151644229888916016e+00) (12, 1.80628883838653564453e+00) (13, 3.54395687580108642578e-01) (14, 1.83485436439514160156e+00) (15, 5.87398231029510498047e-01) (16, 1.02236652374267578125e+00) (17, 7.77878537774085998535e-02) (18, -4.31418275833129882812e+00) (19, 3.44920516014099121094e-01) (20, 5.69356262683868408203e-01) (0, -6.07755124568939208984e-01) (1, 1.50000000000000000000e+03) (2, 3.98405343294143676758e-01) (3, 1.50000000000000000000e+03) (4, 1.50000000000000000000e+03) (5, -1.04412746429443359375e+00) (6, 6.59097373485565185547e-01) (7, 7.72236526012420654297e-01) (8, 1.62301969528198242188e+00) (9, 1.01522672176361083984e+00) (10, 1.50000000000000000000e+03) (11, 9.55094814300537109375e-01) (12, 1.54132854938507080078e+00) (13, 1.25875616073608398438e+00) (14, 1.79252922534942626953e+00) (15, 2.38233655691146850586e-01) (16, 1.25243890285491943359e+00) (17, 4.41599309444427490234e-01) (18, -4.24486637115478515625e+00) (19, -2.75731176137924194336e-01) (20, 1.49419033527374267578e+00) (0, -1.49583980441093444824e-01) (1, 1.50000000000000000000e+03) (2, 6.48564398288726806641e-01) (3, 1.50000000000000000000e+03) (4, 1.50000000000000000000e+03) (5, -5.00238656997680664062e+00) (6, 6.71129822731018066406e-01) (7, 7.58825480937957763672e-01) (8, 2.21902251243591308594e+00) (9, 1.01881515979766845703e+00) (10, 1.50000000000000000000e+03) (11, 1.14635431766510009766e+00) (12, 2.33839464187622070312e+00) (13, 4.09278392791748046875e-01) (14, 1.58281612396240234375e+00) (15, 9.26857471466064453125e-01) (16, 1.43768417835235595703e+00) (17, 2.17274928092956542969e+00) (18, -4.25476980209350585938e+00) (19, -1.02354741096496582031e+00) (20, 1.95311522483825683594e+00) (0, 7.76966154575347900391e-01) (1, 1.50000000000000000000e+03) (2, 6.30770444869995117188e-01) (3, 1.50000000000000000000e+03) (4, 1.50000000000000000000e+03) (5, -4.50904160737991333008e-01) (6, -3.05239170789718627930e-01) (7, 7.63451218605041503906e-01) (8, 2.10476803779602050781e+00) (9, 4.51970249414443969727e-01) (10, 1.50000000000000000000e+03) (11, 1.20303285121917724609e+00) (12, 2.09481453895568847656e+00) (13, 2.30576708912849426270e-01) (14, 2.03561139106750488281e+00) (15, 1.87293961644172668457e-01) (16, 2.02199149131774902344e+00) (17, -3.05950820446014404297e-01) (18, -3.59578657150268554688e+00) (19, -6.70349359512329101562e-01) (20, 1.44810688495635986328e+00) (21, 4.39493656158447265625e+00) (22, 1.12258458137512207031e+00) (23, 1.41531229019165039062e+00) (24, 1.66190319061279296875e+01) (25, 6.55721068382263183594e-01) (26, 1.34585320949554443359e+00) (27, 4.75665152072906494141e-01) (28, 6.14452302455902099609e-01) (29, 3.45541620254516601562e+00) (30, -6.69040024280548095703e-01) (31, 7.99931883811950683594e-01) (32, 1.68008399009704589844e+00) (33, 1.21626639366149902344e+00) (34, 1.37427544593811035156e+00) (35, 7.44766533374786376953e-01) (36, 1.09268748760223388672e+00) (37, 5.15567827224731445312e+00) (38, 1.41568839550018310547e+00) (39, 2.68092900514602661133e-01) (40, 9.21014070510864257812e-01) (41, 4.55510973930358886719e-01) 
